/*This file is automatically generated from a Keras model*/

#ifdef HAVE_CONFIG_H
#include "config.h"
#endif

#include "rnn.h"

static const rnn_weight input_dense_weights[1008] = {
   34, 2, 2, -1, -1, 1, -3, -42,
   -7, 35, -2, 25, -24, -43, 16, 3,
   1, 37, -8, 5, 1, -6, 22, 0,
   15, 6, -8, 7, 4, -64, 1, 10,
   34, 14, 28, -52, -32, -33, -3, -12,
   -14, 44, 8, -26, 25, -30, 25, -8,
   -60, 28, -5, 11, 1, 17, -14, 35,
   42, -23, 9, -1, 22, -19, 35, -10,
   -21, -47, 37, 30, -8, -20, -17, 27,
   39, 55, 24, 2, 11, -2, 16, 48,
   -16, -61, 26, -74, 56, 23, -93, 47,
   -29, 13, 7, 54, 36, 36, -4, 31,
   38, 78, 12, -17, -6, 6, 26, -16,
   -12, 33, -62, -29, 22, -38, 32, 64,
   -26, 2, 12, 52, 67, -1, 27, 7,
   -54, 33, -51, -33, -2, 14, 41, -18,
   4, 87, 43, -22, -40, -32, 52, -30,
   -64, 9, -10, -25, 0, -2, -29, -41,
   85, -46, -32, -61, -32, 56, 14, -37,
   -6, 13, -70, 103, 66, -20, -127, 13,
   -127, 0, 58, 81, -17, -11, -66, -52,
   44, -126, -45, -10, 54, 127, 17, -15,
   -127, -56, 7, -61, -20, -62, 22, -2,
   -67, -10, -31, 24, 12, -13, -30, 53,
   -51, -16, -4, -14, -41, 3, -15, -127,
   74, 127, -85, -69, 92, 60, -64, 54,
   -9, 107, -113, 45, 127, 49, -15, -102,
   91, -3, -44, -34, 37, 83, -31, -8,
   -123, -127, -127, 55, 70, 43, -3, 62,
   -122, 97, -9, -104, 4, -31, -32, 42,
   3, -23, 57, -47, -76, -5, 2, -127,
   9, -100, 28, -29, 74, -127, -127, 63,
   -127, 39, -94, 47, -33, 127, -35, 3,
   101, -8, -21, 25, 127, 127, 53, -35,
   -69, 127, -127, 9, 127, 127, 60, 12,
   -116, 127, 90, 89, 5, -127, -113, 73,
   16, -48, 48, -65, -96, 37, 29, -101,
   54, -127, -11, -76, -33, -118, 127, 65,
   -41, 127, 53, -88, -78, 110, -27, -112,
   17, -53, -30, -93, 127, 54, 127, -111,
   -72, 48, -67, 127, -23, -50, -21, 44,
   5, 12, 127, 57, 33, 79, 2, -127,
   -77, -58, -75, 91, -127, -61, -49, -68,
   -7, -127, -127, -2, 74, 127, 8, -12,
   127, 127, -37, 1, -63, -71, -30, 127,
   9, -88, 127, 35, 78, -56, -95, -86,
   116, -52, 127, -106, 113, -127, -123, -6,
   4, -111, -1, 18, 127, 127, 127, -41,
   115, -107, 43, 105, -127, 91, 34, 1,
   -26, -19, -45, -122, -31, 127, -55, -12,
   108, 71, 86, -18, -22, 127, -127, 127,
   36, -127, -18, 90, 35, -103, -61, 115,
   118, 5, 31, -54, 10, -127, -127, 6,
   127, -28, -127, 36, -85, -26, 127, 127,
   91, -127, -8, 9, -7, 14, -65, 127,
   48, 102, 76, -127, -127, -40, 26, 65,
   -74, 69, -42, -41, 38, 127, 127, -47,
   127, 86, 0, -50, -127, -30, 4, -35,
   -92, -127, 117, 82, -116, 99, -63, 34,
   -91, 127, 127, 127, 69, -53, -10, -6,
   -23, 23, -21, 64, -82, 22, 92, 53,
   64, -2, -66, -127, 9, -127, -127, 49,
   44, -44, -115, 77, -126, 127, 127, 41,
   127, -127, 127, -28, -127, 39, 4, -78,
   73, -11, 29, 127, -57, -103, 85, -30,
   26, 65, 90, 43, 81, -86, -41, -9,
   -62, 67, -127, 78, -37, -61, -127, 9,
   -127, 14, -30, 94, 2, 41, -25, 127,
   1, -18, -4, -51, 9, 70, 127, 106,
   69, -20, 42, -127, -24, -127, -127, -7,
   127, 72, 74, -117, 75, -12, -79, -26,
   -7, -32, -127, -45, 127, 127, 21, -23,
   8, -64, 76, 77, -123, 31, 124, 55,
   -37, -31, -127, 127, 127, -43, 3, 127,
   -63, -106, 98, -9, -127, 46, 127, 127,
   71, 127, 18, -127, -105, -89, 73, -127,
   97, -86, 102, -27, 109, -68, -91, -41,
   -51, 127, -127, 49, 127, -87, -122, -127,
   2, -8, 82, 33, 120, 64, 49, -36,
   109, -23, -127, 111, 29, -103, 120, 127,
   -39, -60, 127, -127, -127, -71, 127, 127,
   38, 127, 68, -106, 91, -45, 107, -94,
   23, -127, 74, -33, 70, -127, 4, 16,
   -70, -81, -84, -50, 80, -127, -127, -127,
   -127, 120, -127, -127, -41, -127, -30, 43,
   -127, 99, 106, -127, 54, 127, 76, 32,
   -4, 20, 62, -55, 32, 127, -9, 75,
   -30, -10, 47, -19, -25, -117, -20, -43,
   127, 49, 42, 10, -86, 26, -76, -97,
   -19, -120, -106, -57, -127, 29, -127, -19,
   -86, -19, 18, 45, -48, 13, 14, 61,
   -111, -24, 42, -29, 74, -55, -28, 87,
   -37, 44, 64, -94, 68, -101, 127, 1,
   -97, 70, -55, -21, 3, -40, 26, -17,
   52, -36, -66, -102, 26, -37, 34, -67,
   3, -5, -106, -27, -117, -11, -100, -68,
   49, -64, 122, -6, 27, 27, -20, 82,
   -77, -24, 29, 99, 7, 91, -50, 58,
   -27, -78, -11, -57, 127, -64, 58, 24,
   62, -30, 59, 20, 6, -2, 13, 10,
   113, 14, -29, -70, 75, -65, 34, -40,
   -35, -127, -62, -92, -127, -13, 92, -67,
   -94, -84, -29, 63, -127, -61, 15, 9,
   -23, 105, 69, 23, -127, 100, 114, -79,
   66, 56, -16, -126, -81, -103, -38, 58,
   -97, 77, -17, 65, -127, -41, 22, -14,
   -6, 54, 43, -21, -127, 42, 7, -31,
   24, 107, -36, -86, 30, -49, 71, -39,
   -127, 127, 16, -68, 88, -46, 0, -106,
   63, 43, 31, -42, -36, -105, 82, 113,
   127, 38, -64, 16, -107, 60, 83, -32,
   -58, -58, 29, -14, 91, -90, -17, -19,
   -24, 8, -32, 127, 13, -64, 89, -19,
   40, 23, -51, -95, -37, 16, 23, -98,
   2, -78, -71, 6, 92, -16, -40, 81,
   -4, 32, 66, 63, -127, 35, -17, -127,
   89, -98, -30, -42, -53, -74, 88, -49,
   -26, 78, -2, -67, 127, 36, -52, 13,
   22, -67, -72, 117, -110, 30, 73, 45,
   51, 41, -29, -6, -75, 52, 29, -43,
   -25, 91, -31, -13, 53, 17, 5, -75,
   50, -60, -11, -9, 33, -8, 82, 32,
   -34, -39, 41, 55, -41, 13, -4, -35,
   127, -47, -115, 40, 1, 1, 13, 19,
   -19, -41, 55, 127, -40, -71, -29, 90,
   17, 50, -104, 34, 59, 8, 15, -15
};

static const rnn_weight input_dense_bias[24] = {
   -15, -49, -16, 51, 33, 24, -26, 50,
   -39, 8, 61, -108, 59, -30, -127, 4,
   -96, -56, 37, 31, 3, -2, 60, 66
};

const DenseLayer input_dense = {
   input_dense_bias,
   input_dense_weights,
   42, 24, ACTIVATION_TANH
};

static const rnn_weight vad_gru_weights[1728] = {
   74, -36, -60, 13, 61, -32, 10, -100,
   82, -55, 61, 43, 49, 8, -82, 94,
   19, -43, 85, -3, -27, 9, -52, 103,
   7, 29, 3, 29, 30, -8, -13, 19,
   -90, 22, 1, -54, 73, -18, 16, -10,
   8, -3, -15, 86, -45, -4, 38, 47,
   37, -8, -26, 45, 11, 15, 54, -2,
   20, 43, 5, -51, 57, 50, 10, -3,
   -48, 31, -43, -29, -55, -22, -29, 5,
   127, 106, -84, -91, 73, 127, 114, 16,
   127, 37, -127, -1, 127, 65, 45, 6,
   113, -127, -70, -127, -37, 21, 13, 24,
   -57, -10, 31, 7, -50, 22, 1, -89,
   -127, 43, 5, 77, -16, 91, 37, 11,
   58, 21, -52, 69, -102, -57, 75, 34,
   -71, -25, -26, 20, -52, 44, -1, 95,
   60, -50, -41, 76, -8, -53, -13, 31,
   3, -75, 37, 8, 33, 57, 55, 77,
   16, 36, -127, -127, -18, 27, 52, 57,
   127, -4, 52, -3, -65, 108, 106, -9,
   107, 97, -22, 85, 89, 78, -97, -51,
   -1, 61, 19, 69, -127, 61, 42, -29,
   -66, 127, -21, -18, -98, 103, 101, -99,
   8, 44, 17, 92, 0, -30, 13, 40,
   -84, 125, 43, 13, -19, 47, 98, 79,
   -42, 50, -125, -31, -65, -30, -88, 9,
   -24, 0, -106, 21, -45, -15, -41, 96,
   9, -21, 10, 91, 8, -107, -119, -39,
   -127, -23, -127, -16, -72, 30, -12, 127,
   50, 69, 63, -23, -45, 24, -90, -47,
   17, -48, -63, -55, -24, 126, 26, 13,
   43, -75, -90, 39, -21, -18, 4, 37,
   -21, -38, 61, 50, 24, -101, -127, -109,
   88, -44, 53, 66, -33, 4, -35, -127,
   50, -16, 96, -2, 13, -24, -33, -20,
   -39, 24, 88, -20, -9, 61, -45, -120,
   109, 127, 127, -19, -4, 9, -92, -27,
   -82, -60, -72, 127, 127, 61, -116, -75,
   68, 11, 16, -36, 94, 124, 127, -67,
   -112, 100, -41, 92, -40, -74, -48, 39,
   -39, 62, 88, 22, 36, -35, -44, -51,
   101, 49, 38, 0, -26, 59, 36, -73,
   -11, -51, -90, 77, 69, 84, 49, 34,
   -14, 2, 17, -33, 109, -104, -61, -18,
   -14, -15, -32, -38, 65, -24, 59, -31,
   -12, -26, 76, -26, 32, 27, -32, -127,
   25, 29, 21, 2, 74, 98, 111, 56,
   63, 55, -77, -55, 127, -19, -14, 41,
   34, -37, -127, 42, -69, 57, 12, 18,
   -33, -122, -16, 28, 45, 3, 31, 21,
   -42, -42, -9, -34, 49, 20, -58, -46,
   7, -52, -48, 1, 63, 27, 26, 45,
   -37, -11, -76, -66, 28, -79, 14, 24,
   -116, 10, 1, -2, 20, 4, -46, -55,
   -44, 13, -25, -127, 127, 84, -23, -13,
   -26, -3, -47, 54, 23, 127, 127, 58,
   15, 23, 15, 33, -9, -51, -116, -127,
   126, 127, -127, -7, 14, -46, 84, -127,
   -62, 12, -127, -45, 24, 98, 57, 0,
   26, 98, -83, -23, -84, 5, -30, -43,
   -66, -68, 73, 127, 127, -24, 12, 84,
   110, -46, -16, 14, -88, -113, -127, -51,
   -57, 14, -84, -2, -64, 26, -25, 67,
   16, -69, -42, 39, 49, 12, -37, 126,
   78, 34, -3, -43, 3, -18, 53, 46,
   14, -4, 18, 55, -102, -1, 54, -57,
   7, 37, 34, 55, -1, 38, 86, -77,
   -6, 43, -17, -1, 39, 30, -2, -36,
   26, -2, 25, -6, 16, 62, -51, -73,
   26, -41, 36, -21, 15, -25, -50, 18,
   29, 7, 65, -33, 0, -3, 24, 30,
   -27, -8, -33, 52, -27, -1, 44, -3,
   127, -93, -24, -52, 52, 75, 76, -127,
   127, -54, 127, -3, 0, -33, -96, 34,
   -85, -31, -13, 29, 127, 54, -62, 99,
   99, 11, 96, 19, -60, 25, -96, -127,
   23, -45, 11, 46, -42, 41, -9, 37,
   -11, -47, 127, 19, 127, -50, 19, 22,
   -19, -1, -4, -23, -30, 22, 87, -41,
   -29, 35, -77, -36, -99, 12, 30, -37,
   50, -13, 52, 127, -14, 20, 3, -10,
   -2, -65, -40, 36, 23, -61, 12, 58,
   45, 58, 24, -42, 6, -41, 3, -43,
   44, 40, -43, -51, -5, -2, 34, -119,
   31, -16, 113, 60, -43, -84, -25, 64,
   58, 49, 37, -11, -6, -34, -46, 69,
   -20, 43, -9, -36, -53, -10, 51, -19,
   -35, 52, -8, 3, -1, -57, -40, 124,
   -44, 24, -47, 61, -8, 8, 52, -9,
   -24, 22, 42, -12, 3, 35, 29, 18,
   -127, -111, -38, 119, -42, 16, -99, 40,
   -3, 72, -25, 127, -36, -105, -11, 14,
   -6, -68, 80, -42, -127, 36, -40, -48,
   51, 65, 18, 5, 104, 62, 119, 15,
   -16, 73, -37, 61, 38, 73, -1, -30,
   37, -17, -40, -19, 39, 127, -4, 44,
   92, 11, 88, 31, -58, -63, -18, 6,
   -6, 15, -7, 26, -20, 1, -2, -69,
   6, -44, -42, 1, 18, 15, -46, -57,
   127, -11, 49, -76, 50, 39, -3, -127,
   31, -10, 19, 3, 27, 114, 101, -16,
   107, -22, -3, -52, 58, -13, 49, -7,
   -2, 96, -42, -20, -57, -31, -53, 3,
   39, -70, 99, -36, 40, -47, -87, 14,
   104, 83, -22, -64, -31, -127, 4, -3,
   -11, -9, -21, 12, 7, -51, 29, -68,
   29, -35, -10, -25, -44, -6, 27, -73,
   5, -100, -41, -74, -29, -70, 0, -9,
   48, -26, -8, -120, -65, 59, 43, -41,
   -5, 45, 80, 57, -22, -5, -12, -24,
   -9, 25, 24, 36, 29, -27, -55, 14,
   -49, 17, -52, 47, -7, 35, 24, -90,
   -20, 20, 21, 25, 42, 8, -67, -30,
   -26, -55, 6, -47, -14, -56, -17, -45,
   4, -15, -48, 38, -25, 3, -8, 32,
   -56, -18, 7, 41, 21, 8, 9, -29,
   -37, 66, -31, -47, -50, -9, 50, 16,
   -46, 82, 54, 41, -39, -1, -59, 127,
   3, 18, 2, -70, 50, 30, 31, -29,
   96, -62, -58, -19, -95, -10, 46, 75,
   -15, 31, 26, -34, 48, 23, 10, 57,
   -26, 56, -24, -71, 17, 34, 13, -14,
   28, 55, 25, -39, -83, -97, -31, 18,
   0, 26, -57, -14, 20, 17, 15, 23,
   36, -40, -21, 27, -20, 57, -4, -23,
   3, -33, 22, -45, 28, -60, -25, 60,
   -5, 41, 89, -38, -73, 57, -53, -109,
   -44, -52, 80, 65, -23, 76, 94, -47,
   35, 47, 92, 1, 120, -127, -7, 78,
   1, -6, -50, 18, -90, -30, -67, -35,
   -40, -60, -15, 47, -11, -40, 22, 24,
   22, -49, -3, 22, -26, -90, -44, -8,
   -57, -13, -23, 75, -6, -36, -51, 15,
   2, -23, -21, -32, 28, 1, -2, -94,
   -17, -56, -52, -20, 34, 61, -47, 12,
   109, 10, -58, 18, -109, -18, -19, -51,
   -89, -50, -127, 127, 127, 79, -127, -34,
   -46, -80, -75, 66, 39, 49, 0, 0,
   -22, 36, -13, 127, 127, -70, 67, 27,
   -102, -3, -24, -56, 16, -56, -109, 3,
   108, 15, -127, -118, -124, -69, -40, -126,
   -9, -127, -15, -42, -14, -38, 2, 6,
   113, -27, 40, -18, -11, 59, 56, 85,
   26, -71, 0, -108, -3, 8, -24, -102,
   -59, -127, -95, -55, 7, -91, -89, -37,
   26, -51, -25, -127, -23, -17, -11, -40,
   64, -23, -24, -57, 127, -49, 26, 98,
   65, 17, -29, 23, -127, -10, -66, -30,
   -29, -112, 4, 36, -36, -24, -53, 33,
   9, -42, -18, -90, -57, -70, -31, -64,
   65, 16, 102, 24, -47, -74, 29, -70,
   -41, 39, 27, -23, -47, 12, 61, 1,
   127, -118, 68, -32, -46, -17, 25, 59,
   13, 70, 12, -16, -48, 42, 41, -75,
   53, 39, 1, 18, 8, -21, -43, -4,
   26, -13, 55, 96, -21, 44, -5, 28,
   -18, -2, 69, 66, 51, 19, -30, 10,
   21, -5, -42, 42, -17, 0, 25, -19,
   -33, 43, -26, 50, 42, 19, 9, 25,
   12, -61, -13, -27, 27, 2, 21, -69,
   -37, -39, 36, 22, 16, -53, 6, 30,
   48, -40, 7, -64, -36, -5, -12, 21,
   -2, 60, -34, 33, 52, 96, -66, 16,
   -127, 23, -48, 100, -9, -50, 44, -65,
   33, -33, 53, -109, -105, -16, -41, -127,
   2, 26, 37, 34, -109, 39, -84, -95,
   28, 40, 32, -20, 17, 36, 32, 31,
   6, -2, 127, -50, -19, -53, 2, -21,
   -37, -5, 8, 89, 17, 30, -37, 86,
   83, -42, -19, -91, -9, 7, -51, -10,
   36, 45, 27, 9, 87, -32, 3, -91,
   52, 105, 127, -62, -47, -105, -2, -127,
   58, -48, 127, -68, 76, -62, 12, 24,
   113, 6, 50, -108, 127, 19, 63, 76,
   -75, 124, -127, -54, -127, -14, -10, 44,
   -21, -4, 38, 66, 31, -54, -48, 99,
   -24, 16, -45, 29, 58, 14, 28, -20,
   6, 13, -9, 74, 64, -4, 0, -7,
   -57, 25, 19, 3, -27, -60, 56, 82,
   27, -82, -72, 49, -124, -19, -38, -32,
   89, -113, -20, 44, 17, 50, 127, 28,
   98, 51, -127, -109, -26, 39, -53, 109,
   -127, 97, -22, 74, 33, 100, -31, 76,
   -26, 32, 65, -36, 20, 101, 39, -86,
   10, -56, 58, 8, 13, -49, 8, -12,
   -8, -67, 6, 25, 42, 62, 0, -75,
   -42, 5, 7, -49, 82, -23, 82, 28,
   -78, -12, 33, 66, -4, 63, 4, -25,
   -61, 46, 3, 58, 7, 49, -22, -14,
   127, -74, -11, 23, -127, -39, 85, 127,
   33, 92, -37, 127, 3, 6, -96, 4,
   -127, 37, -73, 119, -47, 18, 80, 123,
   -15, -30, -6, -29, 41, 27, 120, 24,
   -16, -1, -23, -32, -7, -66, -22, -79,
   -64, -45, -2, -39, -110, 97, 14, -25,
   -74, -101, -16, -54, -30, 8, 0, 1,
   -31, -37, -59, -2, -12, 49, -81, 89,
   18, 26, -35, 78, 60, 76, 12, 0,
   85, 74, -94, 0, -23, 20, -18, 127,
   -49, -19, -69, 0, -24, -9, -21, -73,
   -87, 72, 46, 121, 16, 42, 70, -82,
   -37, 55, 1, -59, -27, 25, -89, 35,
   -26, 16, 14, 53, -1, -19, 44, -33,
   127, 65, 29, -46, 49, -68, 71, -19,
   -43, 44, 19, 1, -27, 9, -32, 13,
   72, 33, -36, 53, -26, 35, -4, 23,
   21, 44, 53, -41, 53, -13, 54, -49,
   -127, 1, -42, 2, -75, -55, -71, 127,
   -88, 78, -76, 127, -108, -17, 117, 34,
   29, -32, -17, 127, -95, 57, -75, -127,
   -75, -80, 29, 127, -116, 88, 48, -55,
   -49, 57, -54, 36, -11, 118, 5, 51,
   -93, -111, 26, 48, 96, -15, 7, -101,
   71, 19, 44, 87, -121, -125, -89, 45,
   68, 92, 24, -15, -13, -95, 37, 61,
   11, -12, 70, 34, 83, 35, 56, -31
};

static const rnn_weight vad_gru_recurrent_weights[1728] = {
   127, 127, -28, -21, 0, 127, -35, 98,
   15, 57, 112, 102, 8, 1, 22, 117,
   -7, 92, 62, -59, -127, -68, 36, -22,
   6, 92, 0, -37, 35, 47, 127, 27,
   58, 42, 95, 55, 84, 0, 53, 20,
   15, 52, 102, 35, 127, 10, 46, -49,
   64, 82, 43, 43, -23, -91, -3, 42,
   9, -35, -46, 51, -127, 33, 17, -17,
   56, -15, -39, -46, 38, -115, -127, 57,
   127, -14, 13, 73, 118, 102, 47, -8,
   -10, 127, 34, -41, 78, 97, 26, -67,
   127, 127, 2, -50, 41, -126, 60, -25,
   3, 52, 6, 58, -7, 54, -48, 50,
   -37, -59, 85, -36, 127, -41, 74, 40,
   36, 70, 35, 2, 100, -81, 46, -88,
   67, 81, 80, 8, -54, -6, 33, 33,
   68, -35, -84, -15, 42, -18, 30, -16,
   122, -41, 2, 48, 81, -103, -40, 13,
   127, 126, -5, -28, 102, 127, 87, -30,
   -113, -17, -87, 127, 15, 127, 127, 27,
   127, -36, 127, 69, -98, -50, -95, -49,
   58, 117, -10, -75, -114, 82, 127, -100,
   25, -7, -81, 47, 37, -38, -91, -22,
   -101, 43, 2, 18, 127, 76, 61, -56,
   37, 89, 41, 107, 0, 60, 71, -71,
   39, 38, -45, -48, -63, -45, -95, -17,
   -17, 21, -65, 19, 14, -53, -122, 77,
   127, 127, -58, -18, 127, 127, 69, -47,
   127, 57, 77, 103, 45, 127, 101, -36,
   127, -60, -88, -70, -29, 71, -45, 112,
   6, -17, -66, 29, -71, 62, 46, 118,
   44, -92, 35, -12, 52, -35, -10, 60,
   -19, 44, 64, 52, 91, -19, -9, 26,
   -11, 5, -27, 82, 14, 25, 55, -120,
   11, -3, -34, -98, -10, -69, -90, 23,
   -2, -88, -29, -49, 113, 7, -56, 41,
   -28, -96, 127, -12, -26, -31, -17, -33,
   88, 42, 32, 125, 85, 98, 92, 12,
   47, 57, -120, 26, 109, 24, -26, 4,
   -119, -12, -77, 47, 34, -124, -98, 106,
   -12, 76, -47, 28, 1, -35, -45, 41,
   18, 58, -16, -58, -49, -37, 6, 17,
   29, -99, -49, -43, 89, 33, 55, -29,
   77, -127, 96, -24, 127, -61, -102, 30,
   -51, 52, 99, 36, 84, 92, 75, -26,
   -21, 98, 111, -1, 127, -35, 105, 19,
   127, 93, -109, 58, 63, 19, 39, 3,
   78, -3, -15, 127, 69, 93, 8, 17,
   -108, -54, 25, 18, -14, -28, -10, 93,
   19, 88, 17, 1, -15, -40, 2, -9,
   -37, -4, 55, -66, 6, -6, 65, 39,
   -15, 8, -7, 7, -3, 63, 61, 8,
   -50, 61, 37, 16, 127, -28, -44, -5,
   -1, 25, -25, 13, 44, 27, 5, -20,
   127, -35, -20, -58, -16, -72, -79, -127,
   -73, 69, -127, 16, 97, -67, -40, -93,
   127, 96, -127, 51, 68, 127, 48, -54,
   -45, 107, 14, -96, -31, -43, -68, 60,
   -37, -2, 118, -39, -50, -63, -15, -53,
   -41, 40, -68, -85, -32, -3, 127, 64,
   -47, -41, -20, -26, 2, 9, 67, -34,
   -13, 20, 10, -70, 115, -32, -7, -46,
   -25, 71, 53, 50, 62, 104, 127, -43,
   -3, -62, -42, -51, -6, 10, -13, 127,
   -127, 127, -44, -1, -113, 91, 35, 126,
   17, 127, 117, 27, 113, 76, -110, -96,
   58, 9, 0, 26, 127, 93, 17, -27,
   22, -1, -31, 1, -24, 107, 117, 57,
   -105, -98, 14, 46, 28, 112, 34, 31,
   19, -84, -93, -29, -33, -35, -10, 122,
   51, 7, 70, -32, 64, -81, 30, 94,
   56, 35, 29, 30, -100, -1, 78, -85,
   -60, -20, 9, -73, -48, -21, -41, 40,
   127, -33, 127, -7, 61, -43, -99, 32,
   68, 36, 49, -127, -104, -127, 10, -58,
   49, -32, 21, 48, 99, -91, 32, -35,
   -53, 21, -44, 3, -11, 83, 2, 104,
   75, 127, 36, 25, -98, 4, -63, 97,
   68, -12, -4, -22, -127, -17, -60, 20,
   113, -2, -79, 83, -40, -56, 45, -5,
   57, -7, 4, -42, -122, -98, -51, 8,
   6, 53, 42, 55, 127, 43, 35, 101,
   -47, 127, 127, -31, 127, -20, 90, 85,
   -59, 13, -121, 123, -127, -127, 53, 43,
   -114, 7, -111, -101, -43, 99, 17, -44,
   -2, 63, 62, -127, -11, -50, 127, -12,
   -127, -38, 127, 121, 127, -79, -58, -127,
   -74, -46, 19, 24, 101, 76, 33, 35,
   -29, 51, 51, -100, -66, -80, -127, 55,
   -88, -22, 111, 71, 127, 21, 67, 2,
   -127, -8, 1, 64, -116, -127, -127, -25,
   -79, 115, 127, 31, 26, -89, 127, 83,
   43, 127, -35, -93, -12, -61, 27, 64,
   -127, 34, 37, 55, 48, -102, 106, 127,
   29, 103, 41, 73, -3, -58, 64, 93,
   33, -30, -57, 127, 47, 4, 33, 18,
   25, 36, 23, -57, 49, 115, -1, 67,
   -34, 127, 91, -59, 80, 109, -95, -35,
   49, -29, 126, -68, 20, 57, -36, -126,
   -81, -19, -7, 22, -8, 19, 33, 127,
   18, 127, -41, -43, 16, 48, 63, 127,
   127, 127, 63, 77, -76, 52, -31, -90,
   79, -25, 108, 8, 67, 54, 104, 31,
   53, 37, -27, 58, 8, 31, 66, 77,
   104, 4, -104, -1, 32, -4, 46, 62,
   125, 37, 41, -50, -35, -32, -77, 27,
   35, -60, 39, 66, -75, 105, -27, 52,
   11, 14, -9, -30, -47, -44, -92, 19,
   63, 127, 123, 75, 79, -56, -73, 104,
   23, 127, -72, 116, 13, 19, -29, 14,
   127, 70, -37, -36, 71, 127, 59, -127,
   -17, -34, -61, -7, -1, 19, -27, 79,
   64, -34, -1, -33, -6, -110, -22, -32,
   -30, -3, 26, 43, 8, -25, 90, 55,
   16, 21, 127, 127, 18, 34, -36, -74,
   -127, -3, -63, -49, 127, 66, -42, -2,
   48, 7, 16, 1, -24, 48, 0, 81,
   127, 54, 2, 24, -81, 60, 53, 99,
   -71, 127, 53, -5, -25, 18, 51, -31,
   127, 127, 127, 74, 7, -102, 111, -118,
   12, 26, 41, -18, 127, 12, 32, -58,
   55, -89, -78, -22, 127, -42, -82, -35,
   43, -38, 5, -127, -4, 63, -9, -79,
   41, 127, 69, -19, -32, -79, -65, 61,
   -6, -10, 53, 55, -97, 127, 97, -27,
   101, -29, 38, -67, -55, -8, -76, -5,
   -115, -127, -104, -41, -75, -127, -63, -80,
   9, -102, -24, -40, -127, -127, -39, -69,
   7, -65, -58, -95, -127, -32, -38, 74,
   76, 27, 29, -31, 30, -9, -127, -101,
   -60, -127, 52, 11, 8, 40, 71, -23,
   -3, -27, -9, -2, -15, 48, 12, 22,
   102, 38, 70, 15, -7, -35, 17, -8,
   56, 50, -27, 49, -92, 78, 87, 7,
   -5, -31, -24, -29, -21, 14, -53, -9,
   -88, -15, 22, 69, 26, -123, -33, 127,
   49, 127, 66, 114, -14, -50, 65, 65,
   -107, -1, 96, 98, -9, 127, 66, 79,
   61, -7, 26, -63, -9, 10, 63, -1,
   -28, 38, -127, 23, 26, -45, 97, -54,
   14, -73, -9, 46, 16, 67, 36, 31,
   29, 93, 88, -15, -38, -23, -40, -12,
   8, -60, -3, -6, 65, 34, 9, 23,
   -66, -22, 38, -65, -99, -101, -79, 57,
   -67, -100, -127, -17, -69, 7, -107, 1,
   -9, 11, 127, 54, 88, -45, -42, -60,
   31, 22, 11, -68, 18, -127, -82, 61,
   -107, -7, 63, 7, 63, -43, 51, -19,
   -40, -35, 34, 3, 86, 24, 77, 127,
   27, 82, 39, -26, 35, -50, -113, -23,
   -38, 9, 21, 29, 53, 71, -20, -18,
   70, 105, 127, 27, 8, -19, -42, -63,
   104, -35, -3, -18, 54, -98, -41, -14,
   125, 127, 71, -5, 2, 10, 88, -16,
   1, 91, -127, 20, 104, 78, -55, -73,
   -10, -127, 127, 61, -93, 127, 127, -110,
   127, 42, 30, -69, 127, 18, -43, 51,
   13, -14, -81, 78, -44, -25, -87, -11,
   54, 7, 9, -14, -5, -15, 110, -23,
   -22, 41, -25, 62, -17, -10, -7, 20,
   52, -15, -115, 0, 12, -4, 5, 49,
   -108, 70, -24, 0, -4, -39, -44, -4,
   35, 125, 48, -13, 6, 39, -65, 124,
   -36, 72, -48, 74, 47, 79, 113, -3,
   -70, 26, 37, 36, -1, -48, 111, -127,
   -12, -44, 25, -37, -79, 41, -92, -52,
   -19, -5, 23, 45, 52, -8, 38, 28,
   -16, -12, 17, 81, 97, -93, 7, -68,
   -39, 2, -16, -18, 96, 63, 2, 108,
   68, -86, -80, 2, -6, -30, -77, 48,
   -43, 71, 31, 15, 41, -74, 65, 0,
   -127, -45, -122, 127, 5, -127, -54, -81,
   -98, 17, -114, -33, -43, -58, -127, -3,
   -109, -21, 127, -21, -111, 41, 37, -52,
   -14, 18, -25, -127, -60, 83, 15, -45,
   20, -31, 44, -29, -75, 12, 39, -30,
   -75, -17, 47, 3, -63, 66, -60, 30,
   -105, 27, 26, -1, 0, 28, -6, -32,
   38, -58, -39, -33, 61, -67, 13, 127,
   -23, 101, 84, 21, -12, 93, 31, -2,
   127, 54, 31, 88, 36, -127, -102, 67,
   127, 87, -56, -90, 118, -100, -85, 102,
   19, 127, -127, -31, 32, 127, 12, 21,
   9, -25, -23, 67, -5, 3, -4, 127,
   127, 109, 24, 30, -9, -34, 38, -38,
   -4, 25, 59, -68, 50, -27, 23, -71,
   -76, 9, -71, 55, 106, 115, 4, 22,
   4, -18, -21, 20, 127, 4, -75, 18,
   -127, 127, 21, 3, 53, 38, 99, -40,
   79, 39, -11, 120, 89, 9, 74, 67,
   33, -127, -127, -24, -98, -5, -126, -47,
   -90, -109, 43, 127, -127, 43, 55, -93,
   76, 84, -94, -29, 74, 63, 28, -122,
   102, -98, -127, 103, -63, 61, -127, -49,
   -127, -127, -94, -22, -112, 111, 87, -17,
   -81, -127, 96, 76, -28, 22, 22, -23,
   -58, 89, -69, -127, -65, 4, -61, 35,
   -106, 92, -71, 55, -34, 127, 51, -55,
   -127, -26, -47, -88, -24, -127, -45, -5,
   -49, 58, -127, -33, -45, -84, -127, -127,
   -111, -84, -75, -40, 33, 127, -34, -127,
   -29, 33, -40, -103, 53, -47, -102, -4,
   -94, 95, 127, -5, -114, 14, -61, -127,
   -34, 30, 11, -39, -97, -100, 16, 37,
   -17, -47, -17, -8, 30, -17, -6, 113,
   -18, -68, 42, -44, 99, -28, 89, 6,
   -97, 42, 82, 43, 53, 127, 127, -20,
   92, 56, 40, -29, 127, 127, 39, -11,
   2, -54, -38, -39, -12, 74, 63, -127,
   109, 123, -102, 127, 88, -38, -41, -64,
   -26, 82, -2, 92, -39, 24, 13, -90,
   -80, 14, -69, -71, -49, -20, 45, -51,
   75, 69, -66, -51, 41, -52, 23, -29,
   -73, 69, 27, 27, 63, 64, 123, 33,
   0, -66, -90, 47, 23, -22, -84, -115,
   57, 60, -31, 4, 75, -78, 75, 127
};

static const rnn_weight vad_gru_bias[72] = {
   114, 127, -19, -55, 94, 4, 34, 127,
   117, 127, 28, 91, 126, 127, 66, 127,
   127, 127, 24, 87, 20, 127, 127, -63,
   34, 45, 5, 23, 7, 15, 42, 27,
   37, 63, 22, 52, 50, 14, 43, 30,
   21, -24, 2, 15, 40, 88, 102, 47,
   18, 69, 40, 15, -11, 21, -2, 38,
   -17, 24, -15, 18, 47, 22, -35, 22,
   10, 19, 10, -19, 27, -22, -44, -4
};

const GRULayer vad_gru = {
   vad_gru_bias,
   vad_gru_weights,
   vad_gru_recurrent_weights,
   24, 24, ACTIVATION_TANH
};

static const rnn_weight noise_gru_weights[12960] = {
   2, -46, -22, 5, 6, -41, -3, 33,
   -34, 2, -16, 3, -15, 86, -14, -7,
   -40, 31, -22, -29, 0, -15, -10, -31,
   -48, 13, -8, -40, -4, 53, -27, -13,
   26, 61, 0, 4, -24, 44, 16, 14,
   -15, -4, 32, 41, -11, 15, -8, -24,
   -25, 27, 2, 55, 30, -3, -60, 21,
   -51, -36, 3, -12, 4, -61, 50, -8,
   -19, 82, -51, -34, 39, -29, 44, -95,
   18, 56, -10, 41, -34, -58, 48, 20,
   -27, 1, 28, -16, -14, 22, -20, 56,
   -10, -18, -27, -37, -26, 10, -73, -34,
   -14, -35, -10, 18, -11, 19, 8, -4,
   0, -3, 28, -2, 21, -3, -15, 5,
   6, -22, 32, 10, 3, 32, -21, -4,
   -11, -8, -18, -9, 32, 7, -12, -11,
   -8, -2, -6, 49, 13, -3, -8, -21,
   13, -5, 4, 2, -25, 8, -10, 21,
   16, -67, -16, -33, -20, 44, -15, 26,
   63, -39, -22, -74, -18, 25, -61, 0,
   -83, -35, 20, -87, -27, 65, -62, 78,
   22, 56, -5, -15, 87, -24, 28, 11,
   22, 41, 27, -77, 32, -127, 65, -45,
   75, -27, 25, 17, 5, -21, 10, -52,
   -18, 17, 56, -16, 44, -23, 45, -16,
   30, -48, -57, 127, 13, -15, 22, 6,
   -16, -13, 31, -23, -35, -21, -32, -53,
   -32, 2, -38, -18, -61, -6, 19, -24,
   -33, -3, -2, 69, 6, 14, -20, -22,
   64, -54, 95, 35, -6, -20, 44, 87,
   3, -49, -1, -13, -23, 17, -44, -25,
   -42, -13, -1, 4, 0, -38, -2, -64,
   -4, -6, 41, 36, 5, 55, -59, 24,
   25, 82, -4, -16, -14, -42, 35, -8,
   -75, -26, -42, 38, -28, -6, -39, 58,
   -43, -19, -6, 83, -28, -34, 3, 39,
   44, -20, 69, -63, 20, 22, -91, 21,
   -52, -61, 65, 62, -38, -17, 107, -14,
   2, -43, -47, 27, -63, -59, -83, -24,
   -27, 4, 64, 34, 62, -66, -15, -44,
   -27, 82, -53, 1, -78, 49, 20, 15,
   -19, 45, 77, -12, 15, 38, -43, 35,
   5, 31, 127, -1, -18, -65, -20, 75,
   52, -2, -50, -12, -14, -47, -18, 39,
   29, 32, -81, 47, -3, -2, -9, -83,
   2, 27, -26, -41, -56, -10, -33, 21,
   -104, -49, 16, 35, 25, -7, 81, -10,
   10, 65, 51, 68, 62, -6, -46, -113,
   -65, 49, -101, -20, -33, 54, -1, 12,
   11, -2, -21, 53, -2, -1, -18, -14,
   74, -17, 35, -13, -51, 48, 32, -35,
   -78, -32, 46, -5, 15, -36, 25, 12,
   -16, -28, 4, 39, 18, -7, -85, -94,
   3, 8, -22, 41, 47, -55, -46, -56,
   62, 46, -46, 96, -12, 29, -71, -71,
   27, -2, 7, 36, -15, 8, -5, 65,
   -4, 0, 12, 15, -58, 58, 127, 2,
   -27, -61, -18, -41, -46, -23, 0, 39,
   -4, -35, 127, 8, -19, -16, -36, 19,
   -17, -8, 54, -57, -33, 60, 10, 66,
   -11, -93, -12, -38, 20, -17, -2, 26,
   -33, 60, 60, -31, -23, 4, 18, 14,
   8, 20, -12, 35, 30, 6, 84, 72,
   -4, 16, 5, -44, 53, -34, 26, -29,
   -64, -38, -52, -72, 50, -38, 127, 37,
   56, -22, -42, 1, 33, -25, -4, -15,
   -25, -46, -1, 24, -22, -1, -18, 6,
   -5, -26, -43, 13, -20, 34, -70, 25,
   -21, 7, -4, -3, 3, -25, 34, 36,
   39, 34, 9, 1, -18, 54, 11, 16,
   43, 15, -22, 46, 19, 5, -17, -45,
   29, 9, -9, 13, 2, -14, -35, 50,
   -43, -21, 51, 127, -112, 10, -19, -50,
   -22, -10, 108, -33, -5, -26, -31, 17,
   -89, -6, -28, 56, -16, 20, -34, -15,
   8, 37, 19, -20, 57, 63, 27, -27,
   34, -32, 84, -45, -61, 17, -30, -14,
   38, -10, -88, -77, -23, 53, -15, 60,
   -5, 24, -34, 24, 56, -24, -31, -50,
   12, 52, 10, 34, -23, 55, 22, 26,
   32, 11, -50, -27, -8, -122, -62, 45,
   -12, 21, 28, 61, -26, -42, -18, -22,
   56, 47, -75, -21, 12, -51, -35, 66,
   -6, -24, 47, 52, 9, -92, -29, 123,
   3, 68, 53, -42, -18, 23, -22, 5,
   8, -5, -6, 48, 10, 19, 30, -30,
   -17, -10, 53, 52, -6, -21, 79, -7,
   68, 46, 45, 53, -13, -52, 45, 19,
   29, 0, -27, 36, 18, 14, -33, -21,
   16, 6, 13, 16, 17, 33, 20, 3,
   22, -31, 40, 51, -67, -8, -39, -18,
   -11, -93, 21, 0, -30, 7, -22, 17,
   43, -41, -43, -1, -2, -17, 4, -28,
   -50, -33, 2, 7, 21, 0, -4, -36,
   -35, -17, -28, 1, -20, 33, -25, 2,
   -18, -11, 25, 6, 86, -9, 14, 26,
   -21, -8, -67, -15, 5, 10, 20, -52,
   28, -15, 0, -34, 29, 0, 15, 14,
   29, 52, 5, 6, -34, -5, -56, -19,
   -21, -59, 25, -64, 4, 13, -53, 27,
   12, -70, -12, -3, -2, -26, 12, -33,
   55, -66, 24, 24, 44, 15, 11, 0,
   -44, -3, 32, -20, 37, -23, 31, 24,
   17, -1, -15, 23, 40, -22, 37, -32,
   -17, -1, -11, 17, -38, 9, 9, -5,
   55, -35, -43, -5, 18, -27, 19, -13,
   15, -26, -49, -8, -103, -4, 59, -15,
   0, -22, 34, -33, 9, 51, -12, 13,
   -54, 61, 68, 59, 20, 22, 41, -3,
   -22, -127, 36, 82, 13, 26, 40, -2,
   47, -18, 24, 26, 34, -22, 13, -64,
   69, 28, 15, -48, 9, 4, 4, 60,
   32, -21, -45, -5, -35, -21, -34, -10,
   72, -23, -42, 95, 40, -3, -32, 18,
   -10, 5, -53, 30, 24, -16, -4, -62,
   -26, -9, -69, 55, 60, 35, 20, 37,
   -44, 52, 55, 79, -16, 1, -27, 43,
   -18, 45, -7, -13, -48, 49, -35, -48,
   -51, -24, -35, 35, 38, 3, 29, 60,
   -1, 47, 41, 14, -19, 34, 94, -69,
   20, 6, 54, 32, -36, -4, 73, -27,
   -25, -51, -18, 47, -3, -27, -6, -32,
   -7, 28, 59, -53, -24, -3, -34, 65,
   -39, 15, 40, 9, 41, 44, 11, 29,
   -4, 20, 21, 0, 40, -54, 27, -40,
   22, -1, 39, -46, 34, -88, 3, -86,
   26, 11, -31, 13, 48, -31, -26, 22,
   -12, 3, -68, 3, 2, -24, 20, -4,
   -52, 4, -23, -48, -11, -65, -13, 56,
   -7, 28, -15, 39, 22, 44, -16, 1,
   -22, -42, 16, -8, -42, -16, 87, -29,
   -23, 1, 47, 25, 37, -20, -40, 11,
   -2, -19, -41, 6, 78, -40, 42, -71,
   16, 25, -47, -45, -22, 1, 8, -43,
   -3, -20, 127, 31, -12, 5, -38, 100,
   4, -23, 38, -20, -19, 35, -22, -47,
   -34, 2, -13, -27, 24, -57, -11, -43,
   12, 12, 47, 45, 24, 59, -28, 35,
   53, 36, 18, 11, -9, 15, 17, 22,
   9, 8, -13, 26, -49, -13, -23, 12,
   -8, -38, -9, 3, -55, 25, -38, 38,
   40, -23, 7, -47, 48, -5, 10, 41,
   22, 17, 8, 12, -3, -13, 16, 11,
   9, 49, -1, 14, 13, 13, -39, 3,
   56, 4, 13, 46, -8, -50, -23, -24,
   -2, -24, 82, 62, -55, 39, 94, -56,
   -38, -5, -56, 25, -12, -122, 2, -42,
   -71, 33, 71, 9, -28, -2, -26, -6,
   83, -22, -8, 23, -109, -1, 12, -18,
   6, 24, 87, -91, -15, 32, -52, -36,
   -42, 1, 6, 69, -40, 9, -62, -18,
   -9, 94, 6, -29, -51, 98, 47, -71,
   -19, -9, 14, -10, 29, -42, -33, -82,
   -55, -26, -64, -13, -32, -22, 116, -2,
   29, 2, -33, 69, 55, 36, -23, -4,
   36, 127, 32, 27, 73, -9, 86, -11,
   -49, -48, -5, -20, 23, 8, 68, -31,
   -3, 7, -15, 15, -54, -25, 43, 23,
   45, -47, 25, -1, 11, 32, 15, 27,
   -6, -1, 19, -49, -7, -8, 24, -27,
   -50, 25, -59, 46, 10, -40, -65, -2,
   59, -14, -29, 2, -59, 24, -14, -18,
   -60, 44, 5, -59, -4, 45, 9, -33,
   39, 12, 5, 12, 29, 15, -17, 44,
   20, -9, -56, -5, 1, 8, -9, 29,
   22, -11, 16, -29, -19, 16, 4, -1,
   -24, -7, -56, -41, 64, 21, -99, -33,
   56, -39, -37, -5, -27, -1, -36, -5,
   -39, 31, -10, 42, 17, 38, -89, 51,
   22, 2, -1, 29, 28, -3, 12, 5,
   -9, -5, -32, -20, -5, 7, 45, -97,
   0, 23, -38, 3, -32, 6, 45, 14,
   -43, -66, -3, 5, -24, 4, -41, -1,
   -8, -12, -22, -46, -25, 49, -33, -17,
   -51, -39, 22, -3, -5, 8, -58, -1,
   22, 27, -14, -12, 20, 17, 29, 41,
   -11, 6, -37, 14, 40, 18, 21, -33,
   5, -12, -23, 36, -29, 2, -16, -14,
   -9, -10, 29, 39, -14, -9, -13, 16,
   -3, -14, -11, 25, -12, 21, 17, -43,
   -9, -52, 23, -5, -2, -9, 38, 22,
   20, 39, -57, -5, 29, -33, -32, 38,
   -16, 15, -4, -9, -14, -31, 75, 11,
   -1, 22, 64, -8, 11, 11, 1, 10,
   55, -61, 69, -4, -8, -47, 52, -30,
   -8, 17, 14, 87, 21, -53, 5, -47,
   38, -30, -49, 33, 22, -6, -67, 33,
   -14, -3, 28, 17, 15, -43, 41, -1,
   29, 4, -37, -13, 5, -55, 13, 37,
   -6, 66, 54, 35, 0, 5, 60, 17,
   -1, 43, -35, 42, -4, -29, 7, 27,
   44, 51, -65, 31, 33, -59, -86, -34,
   46, 12, 43, 50, -26, 34, -38, -17,
   -3, -45, 36, -29, 12, 16, -43, -12,
   -44, 0, 2, 13, -14, -3, 19, -10,
   -47, 30, 53, 33, 11, 24, -26, 22,
   46, 38, 25, 19, 36, 9, 1, 28,
   34, 7, -26, 5, 14, -10, -62, 66,
   -20, -17, -53, 7, 28, 20, -13, 28,
   -41, -23, -22, -34, 65, -7, -46, -11,
   -37, -9, 0, 37, 42, -55, 2, -74,
   -52, -2, -20, -1, -1, 10, -37, 14,
   85, -1, -16, 11, 28, -5, 23, -19,
   -23, 4, 12, 18, -3, -37, 9, 5,
   -1, -2, 44, 81, 25, -33, -18, -17,
   22, -16, 53, -8, 2, 8, -6, 3,
   6, -33, 8, -7, 10, -17, -8, -99,
   -37, 65, -86, 2, 17, 3, -24, 17,
   -82, -50, -22, -35, 28, 23, 46, 40,
   -20, -64, 46, -34, 65, -20, 50, 3,
   -47, 21, -37, -14, 22, -49, 12, 18,
   -3, 8, -10, -24, -14, -29, -23, -26,
   -17, 19, -8, -21, 21, -16, 2, 16,
   8, -15, -20, -9, 23, 14, -35, -25,
   -20, -3, -29, 1, 25, 9, -10, -16,
   28, 5, 1, -22, -44, -36, 30, -3,
   -59, -18, 13, 31, 89, 91, -43, 41,
   0, 3, 25, 17, -20, -26, 41, -24,
   46, -17, 36, 16, -16, -41, 14, 49,
   -16, 32, -7, 37, -48, 23, 53, -21,
   2, 10, 67, 5, -16, 10, 48, 19,
   38, -49, -19, -10, -14, 28, -18, 0,
   40, -35, -58, -13, 28, -9, 21, -43,
   -35, 38, -10, 12, 24, -5, -2, 75,
   50, 48, 84, 29, -65, 60, -33, 99,
   11, -23, 50, -67, 44, 4, -10, -32,
   -2, 41, -1, -28, 4, 4, 19, -61,
   19, 8, 53, 22, 15, 38, -48, -36,
   16, -21, -17, 48, 41, 22, 0, 22,
   -18, 10, -23, 2, -16, -21, -9, -3,
   -25, -10, 35, 1, -10, -18, 3, -4,
   -27, 35, -30, 4, 5, -5, 15, 19,
   -21, -6, -13, -5, -1, 14, 15, 34,
   4, 46, -2, -8, -11, 17, -39, 44,
   90, 11, 17, -46, 47, 14, -16, -45,
   27, -45, -12, -16, 26, -9, 7, -11,
   -13, 8, 37, -27, 23, 37, 52, 6,
   84, 39, 15, -17, 12, 28, -4, -68,
   -12, 1, -3, 29, -20, 34, 39, -11,
   -30, 31, 12, -3, -25, 15, 43, -27,
   -17, -16, -3, 1, 21, 9, 65, 37,
   22, -15, -7, 60, 74, 6, -11, -20,
   59, 17, 36, 10, 20, -5, -80, 26,
   -12, -27, 41, -6, 46, 2, -4, 0,
   -11, -1, 7, -61, 46, -87, -55, -43,
   14, 0, -5, 34, -16, 34, 24, -24,
   27, -32, 5, 16, 30, -1, 64, 22,
   -42, 13, -2, -12, -32, -13, -44, -32,
   28, 32, -20, -42, 10, -1, -46, 30,
   -31, -30, -20, -29, 40, 25, -16, 1,
   -25, 32, 3, -9, -20, -21, 83, 0,
   44, -1, 0, 10, 27, 20, -2, 28,
   1, 5, -36, 13, 47, 117, -12, 48,
   7, -46, -16, 1, 15, 5, -31, 35,
   42, 34, -35, 38, -16, -9, 0, -60,
   25, -28, 12, 45, -56, 19, 29, 10,
   7, -3, -16, -40, -10, 4, 36, 5,
   -38, 0, 10, 19, -16, 2, -47, -75,
   -46, 11, -5, -37, -11, -15, 7, 4,
   -41, -12, -16, 46, 38, 55, -20, -12,
   -18, -8, -23, -60, -25, -41, -26, -18,
   48, 31, -49, -18, -9, 13, -41, 28,
   23, -75, 11, 22, 38, 22, -42, -41,
   -63, -77, -20, -34, 21, 20, 30, 17,
   -81, -64, -24, -20, 2, -2, 15, 8,
   -36, 77, -26, 29, 33, 36, -19, 1,
   21, 2, -18, 24, 15, -14, -16, 7,
   36, -40, -53, 12, -13, 32, -20, -10,
   -4, -66, 3, 8, -5, -25, 24, -36,
   53, -37, -10, 20, -29, 66, 21, -38,
   14, 9, 8, 19, 1, 43, 97, -39,
   67, 10, 27, -21, -41, -54, 2, -3,
   34, -41, 19, 28, -27, 5, 31, 80,
   127, -12, -23, -26, -5, 52, 1, 81,
   -9, -77, 31, -8, 17, -88, 9, -8,
   -35, 57, -55, 30, -23, -26, 61, -1,
   -68, -42, -9, 35, 63, 13, 52, -61,
   -8, -24, -38, 30, -31, 27, -52, 46,
   -17, -49, -7, 19, -11, 32, -32, 61,
   15, -30, 37, -38, -1, 20, -44, 65,
   -90, 43, 96, -41, -11, -74, 71, 36,
   -41, -62, 89, 5, -59, -64, -38, 47,
   -30, 26, 38, -5, 14, 12, -53, 30,
   -63, -44, 34, -37, 0, 7, -60, 53,
   18, 28, -4, 22, 37, -24, -72, -10,
   7, 24, 2, -16, 50, -92, -54, 1,
   -66, 47, -15, -71, 9, 6, -66, -7,
   -12, 30, 38, -2, 0, -58, 30, 54,
   88, -4, -2, 43, 42, -16, -51, 60,
   -65, 45, -3, -43, 12, -8, 32, -5,
   -2, 36, -63, 4, 17, -3, 26, -8,
   -46, -36, -19, 15, -65, -24, 59, -36,
   40, 16, -56, -7, 67, 37, -10, 10,
   -7, 25, 73, 100, 71, 127, 28, 89,
   -74, -10, 43, 4, -40, 31, 27, 94,
   -29, -62, 3, -28, 12, 42, -16, -85,
   30, 16, -14, -27, 57, 29, -12, -3,
   53, -82, 12, -83, 15, -22, 1, 6,
   -19, 25, -85, -46, 32, -66, 10, -41,
   -9, -19, 13, -13, -34, 25, 19, -16,
   -41, -7, -19, -5, 4, 17, 12, 30,
   4, 59, -23, 23, 52, -29, 82, 19,
   30, -35, 4, -8, 23, -46, 25, -33,
   -10, -48, -43, 12, 50, -29, -16, -50,
   -23, -24, 46, -26, 18, -6, 4, -19,
   -8, 24, 0, -59, 20, -127, 41, 8,
   25, 20, -10, -39, -28, 33, -19, 50,
   -13, 36, 27, 17, 74, 5, 16, 39,
   8, -43, -3, -46, 37, 53, 80, -62,
   -76, 18, 19, 19, 19, -34, 52, -22,
   22, -5, -40, 7, -9, -26, 72, -51,
   -81, -32, 14, -3, 16, -58, -64, -44,
   -56, 65, -10, 13, -39, 11, 22, 53,
   7, -22, 1, 0, -45, -21, -44, 2,
   13, 54, -43, 1, 37, -34, -8, -72,
   21, 4, -47, 35, -9, -49, 33, 7,
   -10, 19, 9, 38, -38, -6, -18, -5,
   -1, -68, -23, -25, 58, 32, 5, -20,
   9, 38, -1, -38, -31, 20, -51, 9,
   -3, -19, -29, 0, -45, 5, -26, 10,
   5, 36, 2, 1, -28, 30, 32, 12,
   -17, 28, 11, 25, -14, 35, -10, 21,
   26, 9, -8, -18, 9, 7, 12, -2,
   22, 16, -4, 20, 15, -3, 5, -3,
   -7, -52, 23, 20, 43, 23, -34, -8,
   36, -28, -11, 55, -23, -83, 47, -23,
   -30, -28, -17, 29, -32, 21, -4, 27,
   -27, 37, -47, -4, 48, 60, -34, 27,
   4, 19, 21, 29, -34, -78, 41, -15,
   73, -53, -52, -30, -29, -19, -54, 47,
   -6, -77, -5, 3, 35, -17, 30, -50,
   -40, 16, 16, 2, 11, 53, -44, 96,
   9, -11, 56, 27, 27, 46, -17, 49,
   -13, -39, 72, -95, 43, -23, 38, -91,
   -24, 37, -5, -90, 1, -19, -9, -13,
   7, -6, 34, 1, 11, -36, -23, 13,
   35, 20, -14, 45, -15, -25, 18, -57,
   4, 0, -37, -19, -9, 0, 36, -32,
   -3, -2, -21, -23, -35, -27, 74, 16,
   50, -8, 2, -64, -5, -40, -18, -12,
   59, 15, -23, -16, -28, 4, 31, -8,
   -34, -19, 20, -17, -24, -17, 29, -11,
   52, 26, 16, 36, -23, 60, 2, 59,
   40, -34, 0, 4, -30, 10, 23, -11,
   -6, 21, -56, 5, -17, 32, -15, -25,
   -79, -78, 34, -22, -22, 21, 54, -13,
   -8, -6, -24, -39, -20, 8, 24, 28,
   -11, -13, -44, -37, -2, -65, 19, -10,
   32, -24, -21, 18, 11, -43, 3, -6,
   29, -11, 9, -14, 30, 32, 22, 78,
   -7, -36, -22, 0, -8, 15, -2, -18,
   -22, -8, 3, 14, -53, -2, -47, 34,
   -13, -27, 39, 89, 4, -8, 1, -23,
   -12, -46, 16, 78, -2, -16, 1, 29,
   -71, -9, 29, -32, 35, -25, -38, -34,
   -6, 7, -11, 3, 17, -17, -40, -25,
   19, 51, 23, 1, -16, -3, 7, 8,
   -3, 89, 45, -15, -40, -17, -6, 33,
   -50, 11, -26, -33, -17, -10, -1, 20,
   -49, -12, 18, 11, 18, -16, -29, -19,
   -5, -74, 61, 31, 16, 21, -33, 8,
   34, 16, 73, 9, -46, 16, -97, 4,
   10, -21, -2, 39, 38, -20, 63, 53,
   -5, 30, 56, -7, 3, -1, -52, 21,
   -7, 5, 40, -7, -39, -71, 19, 24,
   1, 31, -36, 35, -55, 2, 24, -26,
   57, -55, 13, 10, -22, 10, 13, 8,
   30, 50, -46, 12, 13, -18, 1, 3,
   -30, -42, -25, -23, -32, -37, 76, 9,
   -7, 37, -15, 57, -2, -6, 38, 63,
   47, 15, 14, -18, -12, -20, -9, 29,
   -31, 33, 25, -8, 43, -33, 60, -29,
   36, 0, 37, 11, -32, 18, 27, -15,
   -13, -26, -15, 69, 10, 12, -23, 28,
   9, 17, 8, 21, -13, -12, 33, -38,
   -36, 58, 1, 29, 1, -40, 24, 28,
   35, -12, 20, 13, -23, 18, 39, 9,
   -21, -15, 1, 6, 6, -28, -13, 4,
   -127, 35, -29, 43, 24, -33, 34, 99,
   -15, -13, -9, -50, -13, -68, -18, 88,
   -55, 48, -13, -35, 23, -53, -23, -20,
   70, 49, -22, 1, 52, -22, -12, 38,
   33, -50, 100, 6, -50, -9, -2, -18,
   7, 18, -20, 6, -106, 61, -10, -21,
   -1, 23, -19, -13, 24, -22, 42, 27,
   25, 38, -41, 36, -4, 23, 64, 32,
   30, 41, -1, 16, -5, -71, 78, 46,
   38, -14, 21, 20, -13, -39, 35, 54,
   109, 28, 5, 32, 27, -27, -44, -31,
   60, 44, 71, 42, -13, 55, -39, 89,
   58, 8, 24, -26, -26, 2, 16, 36,
   50, -13, 17, -11, 23, -17, -5, -7,
   -20, -18, 60, 55, 2, 10, -18, 29,
   89, 5, 73, 13, -6, -19, 18, 25,
   42, -29, 1, 15, -24, -30, 22, 53,
   -31, 50, -6, -8, 46, 11, -6, 36,
   -49, 3, 27, 39, -17, 7, 20, -44,
   24, -46, 38, -28, 12, 64, -96, 15,
   17, 5, 6, -6, 6, 24, 26, -26,
   5, 19, 22, 11, 43, -16, 40, 40,
   -18, -8, 20, 22, 33, -30, -56, 5,
   -32, 10, 19, 28, 33, -12, -5, 33,
   -12, -33, 7, 31, 10, 11, -2, 90,
   -35, 0, -15, 38, -7, -53, -47, -25,
   4, 17, 9, -34, 37, 9, 65, -33,
   -4, -2, -19, 25, -39, 17, -21, -31,
   -47, -25, -45, -53, 66, 29, -15, 11,
   6, -19, 18, -83, 11, 30, -50, -11,
   -35, 38, -4, -3, 6, 25, 1, 6,
   31, -35, -21, 20, 22, -30, -25, 29,
   9, -16, 32, -36, 33, 26, -29, -4,
   20, 31, -30, 6, -23, 43, 25, 2,
   42, 23, 20, 37, 26, 9, 22, 20,
   2, -22, -15, 15, -13, 2, 2, -11,
   -7, 70, 1, -67, 23, 29, 18, 45,
   -31, -58, -32, 1, -23, -5, -11, -48,
   24, 27, -25, -33, 30, 55, 19, 53,
   -85, 41, -6, -20, 51, -41, 20, -67,
   26, 28, 1, 35, 31, 46, 98, -18,
   21, -40, -12, 13, 57, -22, -49, 2,
   71, -19, -56, -62, -2, -4, -8, 97,
   68, -21, 2, 6, -53, -33, -53, 12,
   42, 33, 4, -54, 59, -70, 0, 18,
   4, 7, 69, -60, -22, 32, -3, 21,
   -46, 22, -21, -19, 60, -31, 58, -30,
   4, -15, 5, -4, -17, 119, -57, 2,
   40, -82, -30, -18, 62, -38, -34, 12,
   0, -5, 5, 38, 35, 1, 20, 2,
   18, 15, -27, 10, -36, -3, 14, -5,
   30, -7, -51, 11, 61, -22, -1, 3,
   -6, 55, 20, 22, -38, 1, -58, 8,
   -63, 3, 34, -72, 7, 12, -40, 1,
   41, 62, 56, -55, -2, 46, -69, -43,
   -24, 36, 19, -5, 19, 17, -1, 57,
   -16, -8, -24, -127, -1, 82, 33, 3,
   -66, -5, 8, -26, 22, -61, -13, 57,
   -35, 24, -9, -50, -8, -47, 98, 8,
   -31, 27, -60, -19, 40, 45, -13, 66,
   37, -2, -11, 22, 35, -7, -17, -1,
   -61, 89, 75, -40, 10, 19, -72, -48,
   3, -28, 61, 38, 53, 41, 8, 50,
   -15, -13, -2, -19, 56, -2, -13, -19,
   -60, -44, 4, 5, 16, -39, 21, 8,
   27, 60, 46, -31, 61, -1, -10, -35,
   -10, 2, 32, 18, 6, -1, -49, -10,
   72, 21, 22, -49, 4, 0, -42, 9,
   25, -12, 33, -22, -3, 51, -45, 57,
   -6, -8, 35, -19, -70, 5, -3, 31,
   13, 14, 8, 14, -35, 17, -16, 5,
   3, 19, -27, 18, 30, -14, 14, -33,
   -17, -7, -49, -20, 56, -52, 38, -33,
   30, -83, -67, -3, -2, 2, -60, 25,
   -12, -33, 13, -94, -9, 34, -32, 48,
   -26, 67, -20, -18, -34, 3, -69, -33,
   40, 2, 38, -9, 53, 44, -41, 46,
   -14, -78, -41, -83, -77, 47, -30, -16,
   4, -52, 49, -11, 23, 8, -23, 101,
   16, 72, 1, -13, -39, -55, -60, -44,
   -1, 1, 47, 9, -7, 32, -14, -49,
   27, 35, 18, 66, -7, 48, 11, -28,
   2, -6, 3, -12, -41, 15, 34, 11,
   38, 25, -10, -50, -1, -23, 10, 16,
   23, -3, -19, 8, -12, -8, 12, -41,
   33, -24, 27, 46, 6, 40, 31, -49,
   38, 9, 39, 35, 27, -29, -48, -14,
   6, 16, 11, 33, -44, -35, -44, 5,
   4, 10, 13, -23, -24, 4, -17, 3,
   20, -18, -1, -9, 1, -23, -25, 29,
   -47, 32, 57, -89, -111, 15, -38, 22,
   -77, -82, -6, 93, 11, -37, 39, 45,
   -2, -77, 0, -58, 30, -23, 127, -18,
   -86, 17, 28, -26, -34, -28, -31, -76,
   -21, -83, 45, -99, -31, 13, -2, -12,
   -89, -47, 56, 53, -25, -38, 68, -36,
   29, -75, 24, -51, 31, 48, 21, 58,
   64, 41, 41, -26, -24, 34, -33, -92,
   -15, 16, 3, -33, 0, 103, 84, 13,
   16, 18, 48, 27, 8, -9, 29, -28,
   -38, -24, -9, -26, -30, 0, 65, -33,
   20, 95, -23, -65, -4, -21, -10, -124,
   52, -42, -67, -2, 17, 0, -27, -59,
   -2, 20, 27, 9, 50, -12, -21, 1,
   7, 13, 37, 22, -35, -69, 22, -51,
   -66, -47, -29, 15, -35, 5, -8, -52,
   19, 90, 25, -6, -1, 43, 11, -35,
   5, 4, 15, -23, -49, -91, -36, 0,
   -11, -10, 28, -93, -10, 23, 9, 103,
   48, -40, -10, -1, 53, -32, 50, 4,
   -59, -25, -33, -34, 69, -6, 87, -28,
   -53, -21, 3, -24, -21, 6, 11, -24,
   2, 38, -4, -36, -31, -6, 52, 76,
   48, -53, -49, -5, 26, -3, -45, 90,
   35, -10, 13, -16, 16, -34, -22, 21,
   21, 44, 12, 15, 18, 30, 24, -49,
   8, 36, -34, -21, -6, -35, -7, 31,
   -4, 23, 42, -3, 6, 16, -63, 9,
   14, -14, -78, 38, 8, 40, -25, 55,
   1, -7, 35, 39, 50, 52, 0, -6,
   26, 12, -35, 8, 57, 35, -12, -26,
   -23, 44, 0, 11, -1, -49, -3, -39,
   -29, 37, 2, -31, -29, -2, -42, -48,
   20, -31, 19, 28, -5, -1, 50, 35,
   30, 16, -48, -30, -15, 8, -27, -17,
   -8, 11, -27, 49, 38, 12, 11, -37,
   -38, 59, 27, 32, 41, -39, 47, -16,
   92, -30, -12, 84, 22, -5, 6, 19,
   27, -27, 20, -31, -16, 31, -33, -5,
   30, -62, -17, 58, 19, 38, -5, 61,
   41, 16, -30, -10, -49, -15, -50, -32,
   115, 27, -25, -5, -23, -18, -20, -14,
   18, 53, -2, 14, -61, -4, 52, -3,
   23, 14, -90, -36, 25, -14, 18, -7,
   7, -15, -30, -43, -5, 8, 68, -43,
   46, 25, 14, 51, 6, -30, -29, -12,
   -40, 59, -54, -5, 24, -53, 22, 22,
   -33, -15, -34, 21, -39, -1, 21, 24,
   -19, 13, 16, -14, 12, 4, 12, -16,
   5, 8, 12, -2, -24, -9, 32, -2,
   -32, 42, 35, 28, 33, -24, -48, 12,
   -59, -17, -15, 19, 35, -58, -34, -18,
   7, -19, -7, 25, 44, 43, 8, 12,
   5, 8, 3, -2, -88, -34, 0, -5,
   33, -75, -41, 60, -86, -42, 49, -25,
   17, 63, -3, 5, -20, 13, -31, 6,
   5, 17, -1, 21, -63, 32, -14, 84,
   -1, 21, -43, 18, 31, 19, -7, -7,
   38, -3, 27, -1, -81, -103, -82, -7,
   98, 16, 50, -23, -57, 38, 4, 19,
   38, 51, 47, 16, -26, -20, 43, -39,
   21, 17, -58, 4, 8, -69, 30, 3,
   -15, 3, -28, 70, 3, 35, -14, 32,
   -7, 7, -27, 17, 2, -8, 39, -7,
   77, -7, -35, -27, 49, -4, 25, 40,
   41, 43, -9, 10, -46, -53, -9, 46,
   4, 29, -21, 30, 35, 26, 31, 18,
   19, -13, 23, 13, 8, -49, -10, -5,
   -9, 31, 41, 20, 39, -32, 52, -10,
   -11, 23, -17, 77, -34, 0, 8, 17,
   -29, 27, -57, 17, -17, 32, 31, 9,
   -22, -19, -12, 8, 14, -25, 0, 6,
   -45, -33, 20, 70, -7, -53, 53, 84,
   64, -43, 32, 63, 75, -18, 44, -22,
   7, -2, -18, 25, -15, 19, 4, 5,
   -25, -34, -63, 45, 25, 23, -63, 64,
   20, 30, 2, 8, -71, 29, -46, 71,
   103, 85, 80, -47, -58, -43, 36, -28,
   -5, 37, -10, 18, -3, -7, -11, -30,
   -6, 9, -51, 0, 56, -47, 36, 14,
   -50, 32, -29, -32, 5, -37, -12, -55,
   5, -50, -50, 17, -13, -49, -15, -12,
   75, -24, 17, -21, -21, 27, 21, 38,
   -67, -9, -3, 69, -11, -7, -17, -29,
   21, 10, 4, 5, -21, 34, 37, -52,
   -30, -8, 30, -19, 4, 0, 34, 30,
   60, -9, 43, 2, 40, -7, -71, -10,
   -15, -20, -4, -15, 78, -21, -32, -81,
   -36, -49, -43, 57, -5, 32, 17, 32,
   -46, -18, -24, 3, -3, 64, -4, -13,
   -30, 33, 21, 52, 5, 23, 31, -53,
   107, -79, -27, -3, 18, -24, 3, 31,
   37, -4, 74, -7, 86, 34, -31, 67,
   39, 68, -1, 35, 12, 72, 78, 5,
   49, 97, -29, -24, -5, -44, 51, 41,
   7, 68, -28, 8, 75, 1, -50, -13,
   42, 32, 15, -46, 80, 1, 13, -47,
   -16, -13, -26, 62, -39, -26, 65, 41,
   17, -19, 52, 44, 1, -34, -32, 41,
   -35, -35, -3, -10, -66, 37, 11, -28,
   49, 62, 19, 34, -41, -29, -27, -95,
   54, 13, 49, 63, -19, -10, -26, 2,
   -29, -16, 27, -13, 1, 56, 8, -20,
   -30, -14, -36, 25, 27, 1, -24, -26,
   23, 37, 46, 17, -18, 28, -12, -34,
   -12, 45, -6, 9, -41, -18, -45, 33,
   -13, 16, 18, -26, -25, -13, 10, 31,
   -14, 22, 12, 17, 54, 27, -8, 21,
   -22, 35, -47, -4, -37, 36, 99, -93,
   -59, 17, -73, -113, -34, 26, -67, -7,
   -4, 22, 65, -7, -1, -4, 14, -23,
   -10, 2, 31, -115, 11, -55, 28, -94,
   29, 17, 48, -37, 85, -51, 63, -39,
   -102, -85, -40, -23, 34, -65, -63, -22,
   -79, 1, -28, 40, 24, 0, 39, -58,
   23, 13, 18, 63, 5, -17, -84, 27,
   32, 21, 57, 45, -12, -2, -121, 39,
   -24, 52, 65, 33, 6, 80, -14, 11,
   -63, 27, 27, 15, 4, -23, -38, 10,
   -14, -17, 44, -68, -26, -73, 15, 2,
   30, 1, 11, -14, 25, -40, -18, -33,
   -3, -24, 20, 3, 24, 27, -24, -3,
   -23, 11, -45, 8, 17, 14, 35, 43,
   -11, 11, -8, 4, 0, -22, 19, 73,
   -45, -17, -24, 21, -76, -4, -3, -2,
   67, -16, 35, -17, 9, -11, -12, -18,
   -57, 9, 39, 63, -31, -38, 28, -31,
   107, -47, 40, 127, 19, -3, 11, -21,
   20, -105, 26, 88, 36, -32, 60, 29,
   -42, -21, 30, 97, -30, -23, 13, -53,
   -64, -45, -2, -9, 127, 7, -30, 16,
   -55, 25, -14, 14, -68, -52, -50, 14,
   -14, -45, 12, 13, -85, -7, 21, 79,
   -62, 57, -28, -73, 10, 15, 3, -63,
   -68, 70, 0, 0, 36, 127, 65, 22,
   74, -41, 27, -3, 0, 6, 56, 25,
   -2, 19, -108, 20, 28, 45, -15, 72,
   -4, -17, 45, -11, 42, -123, 1, -57,
   80, -22, -41, 18, -60, -10, -47, -2,
   29, 35, -2, -69, 20, 17, -33, 83,
   31, 41, -29, 32, 26, 67, 39, 55,
   -28, -20, -29, 37, 47, 32, 0, -2,
   43, 9, -32, 35, 11, 11, 1, -60,
   2, 16, -4, -54, -11, 0, 28, 34,
   7, 0, 24, -13, -72, -39, 69, -83,
   -2, -25, -27, 32, 54, 27, -69, -20,
   -46, 25, 70, 29, -25, 40, 26, 30,
   -20, 1, 7, 52, -63, 26, -17, 21,
   -56, 3, 66, -9, 32, 56, -33, -6,
   -36, -32, -46, 27, 34, -95, -123, -47,
   13, -49, -15, -26, -38, -31, 121, -21,
   27, 7, -17, -9, 32, -32, -26, 37,
   6, 18, -2, -55, 7, 51, -24, 20,
   41, 42, 56, 62, 10, 8, 43, 60,
   -36, 49, -3, -6, -53, -33, 43, 76,
   31, -78, 13, 3, 51, -30, 37, -31,
   83, 14, 0, 23, -8, -10, 27, -63,
   -44, 32, 47, -21, 3, 47, -22, 32,
   27, 38, 2, -14, 31, -34, -57, -47,
   27, -5, 37, 20, 21, 5, -13, -11,
   54, 69, -3, 44, 12, -2, 17, -15,
   32, 32, 34, 3, 18, -29, 22, 25,
   20, 79, -14, -59, -14, 69, -35, 7,
   -1, -48, 48, -32, 37, 44, -47, 20,
   75, 16, -9, -21, 11, 61, 26, 43,
   -6, 12, 0, 34, 110, 8, 43, -37,
   28, -11, -48, -11, 13, -18, -10, -10,
   -1, 5, -5, -44, 20, -7, -26, -29,
   -1, 22, 0, 38, 16, -13, -8, -48,
   24, 14, 4, 27, 34, -48, -37, 36,
   21, -45, -15, 19, -3, -63, -49, 12,
   -25, 38, 19, 25, -14, 76, 6, 4,
   -13, -19, 14, 36, -40, 14, -7, -38,
   5, -7, -35, -50, -66, -48, -16, 1,
   55, 6, 33, 43, 20, -39, 3, 8,
   13, 2, -10, 57, -8, 46, 8, -49,
   -25, -4, 40, 6, 45, -38, -10, -33,
   -41, -20, 29, -6, -36, 43, 14, 30,
   45, -22, 78, 15, -29, 2, 28, 15,
   23, -7, 12, 1, 28, -5, -12, -35,
   2, -104, 2, 40, 40, -4, -32, 4,
   19, 12, -11, 13, 70, 29, 32, -17,
   -81, 14, 2, -21, -24, 58, 18, -1,
   -45, -31, -34, -14, 44, 66, 9, -41,
   60, 19, -32, -11, -62, -30, 1, -15,
   68, 11, -9, 3, -8, 48, -33, 127,
   66, -21, -40, 5, 25, 0, 15, 3,
   21, -44, -21, -66, -9, -40, 56, 14,
   -20, -13, -37, 51, 6, -34, 44, 58,
   -58, 23, 0, 9, 29, -50, -44, 61,
   78, 44, -17, -7, 21, 16, 13, -16,
   -1, -36, -9, 16, -17, 41, -5, 12,
   -20, -12, -26, 7, -30, 2, 7, -35,
   0, 19, 33, 17, -44, 20, -27, -2,
   -4, 41, -32, -16, 10, -39, 10, 13,
   41, 16, -10, 24, 19, -47, -15, 19,
   36, 6, -29, 35, 5, -22, 46, 55,
   14, -28, 22, 17, 1, 3, 27, 43,
   65, 31, -3, -50, 5, 69, 3, -50,
   -8, 76, 47, -1, -24, 105, -2, 52,
   -33, 32, 23, -46, -7, -48, 49, -26,
   59, 17, -29, 10, -64, -35, -40, 18,
   26, 33, -56, 4, 20, -3, -24, 25,
   -25, 36, 5, -48, 24, 47, -25, 31,
   19, 47, 43, 25, 10, 11, 14, 41,
   -7, 90, 45, -8, -9, 18, -5, -79,
   11, 20, 30, -14, -30, -47, 44, 60,
   -26, -29, 23, 29, 55, 13, 64, -2,
   -1, 2, 2, -45, -50, -35, 14, 23,
   -73, 19, -4, -42, -70, -5, -9, -42,
   -5, 69, -40, 7, 38, -42, 6, -3,
   46, 7, 6, -4, -23, 59, -62, 47,
   33, 9, 11, -27, 2, -1, -28, -16,
   -22, -24, 6, -17, -50, 0, -10, 61,
   59, 30, 8, 17, 44, -10, 46, 16,
   -1, -23, 27, -47, 58, -12, 33, -4,
   41, 56, 6, -72, 33, 5, -45, -37,
   -35, 121, -47, -17, -32, -36, -55, 2,
   -21, -32, -43, -58, 49, 0, -5, -2,
   -84, 40, -17, -44, 17, -32, -42, 75,
   80, 41, 5, 53, 9, 31, 22, -14,
   -85, 41, 4, 34, -10, -100, -50, -64,
   -74, -20, 26, 69, -18, -50, 0, 76,
   -37, -38, 64, -9, -27, -31, 20, -62,
   -20, 25, -12, -23, -18, -38, -34, -15,
   -77, -6, -12, 9, -39, -29, -10, -9,
   -4, -19, -44, 21, -99, 28, -90, -1,
   -69, -29, -23, -18, -4, 52, -88, 21,
   -36, -42, -20, 41, -64, -24, 10, 8,
   -64, -23, 2, -36, -27, -21, 5, -6,
   28, -18, 7, -1, 8, -2, -37, -41,
   69, -31, 7, -62, -10, 34, 31, 13,
   11, -31, 14, -12, -20, -13, 14, 37,
   29, 13, -10, -5, 28, 24, 39, -17,
   32, -42, 13, -54, -27, 28, -48, -29,
   -4, 11, 47, 2, -22, 28, 68, 28,
   -26, 20, -19, -39, -5, 5, 61, 6,
   -20, -17, 8, -31, 22, 24, 6, 30,
   39, 48, -22, 27, -29, 45, 46, 13,
   -8, 55, -23, -22, 127, -22, -16, 15,
   -39, 2, 42, -30, -23, 9, -34, -44,
   20, -15, 13, -38, 5, -7, -21, -41,
   -9, -44, -35, -10, -2, -3, 5, 25,
   -54, 8, 30, -44, -53, -3, -48, 52,
   -11, -14, 5, 13, -29, 12, 58, 6,
   65, -41, 28, 24, 6, -17, -42, -47,
   5, 7, -21, 68, -36, -13, -72, -22,
   -57, 14, -15, 28, -6, -47, -18, -19,
   -39, 13, 54, -18, -24, 33, -63, 21,
   -3, -13, 15, -38, -35, 2, -11, 47,
   42, 3, 59, 10, -39, 9, 12, -5,
   -81, -29, 1, -12, 0, -25, 15, 20,
   93, 36, 47, -25, -47, 47, -11, -6,
   35, 118, -75, 8, 35, 20, -42, 67,
   33, -43, -38, 7, -5, 93, 12, 61,
   -20, 6, -26, -45, -44, -31, 91, -44,
   12, 49, 45, 28, 49, 42, -11, 15,
   69, -12, -37, 4, 18, 15, 25, 52,
   -4, -15, 23, -8, -35, 34, 28, 28,
   73, 70, 44, -18, -2, -3, -22, 18,
   -7, 22, 71, -24, 12, 44, -56, -30,
   -10, -28, -20, 22, 14, 23, 66, 87,
   -42, 5, 0, -15, -102, 39, 10, -41,
   -21, -17, 58, -20, -8, 14, -31, -83,
   -7, 20, 19, -6, -17, -12, 2, 26,
   58, -21, -26, -29, 28, 39, 12, 26,
   24, -28, -51, -37, -8, -1, -46, -23,
   9, 37, 5, -11, -50, 6, 3, 40,
   -9, 11, 27, 6, -1, 29, 49, -3,
   23, 8, 24, -31, -20, -36, 31, -41,
   -55, -77, 41, -3, 65, -39, 7, 10,
   -60, -114, -23, -33, -35, 11, 94, 43,
   -21, 79, 11, -17, 38, -10, 32, -81,
   -18, -48, 8, -9, 29, -52, -91, 89,
   -2, 46, 27, -11, 22, -44, 9, 31,
   -43, 5, 32, -14, 49, 32, 3, -106,
   -1, -32, -54, -29, -9, -29, -27, -53,
   0, 10, -31, -10, -7, 51, -9, -79,
   18, 32, 9, 12, 19, 8, 34, 37,
   -39, -4, 42, 11, 9, 9, -44, -80,
   11, 68, 15, 12, -20, 0, -13, 7,
   50, 0, -16, 31, -65, -1, -56, 76,
   40, 0, 3, 27, 22, 29, 23, 2,
   -25, 37, -23, 5, 1, 0, 23, 34,
   -35, -2, 0, 13, 41, -35, 18, 16,
   -10, -18, -40, -3, 28, -2, 19, -20,
   -21, -29, -4, 15, -58, -9, -21, -13,
   -45, -64, -12, -24, 11, -30, -9, 0,
   57, 40, 77, 27, 4, 16, -27, -82,
   73, -81, 46, -20, 30, 86, 9, 34,
   -36, -23, -42, -10, 31, -19, -1, -20,
   -7, -28, 88, -13, -23, 63, 23, 15,
   11, 38, 40, -17, 33, 21, 37, -8,
   8, 72, -36, -2, 24, -51, -57, 36,
   -36, 2, 52, -38, -58, 37, -14, 33,
   -40, 14, 31, 11, 31, -10, -7, -45,
   4, 21, -29, 21, -1, -3, -18, -20,
   -12, 23, -25, 0, 8, -52, 32, 18,
   -21, 3, -13, -18, 11, -8, -8, 95,
   44, -59, -7, -1, 27, -7, 6, -17,
   -31, -20, -9, -1, -5, -28, -75, 11,
   -22, -1, 39, -31, -28, -29, 21, 8,
   8, 11, -40, -24, 20, 7, -11, 33,
   15, -47, 30, 34, -2, -20, 19, 4,
   -25, 4, -18, 28, -8, -15, -7, 29,
   -15, -66, -4, 7, -15, 50, 17, 44,
   -10, 29, -1, 23, 13, -28, 24, 14,
   54, 41, -49, -3, -47, -54, 3, -69,
   -46, -38, -7, -4, 0, -1, 1, 14,
   21, -45, -89, -1, 24, 50, -74, 8,
   -60, -4, 40, 7, -26, 5, -9, -91,
   -55, -98, 27, 6, 14, 11, 14, 23,
   2, -101, -30, -2, -50, -20, 9, -2,
   9, -34, -67, -17, 24, 9, 35, -1,
   -16, -6, -15, -31, -28, 42, 0, -6,
   12, -46, 57, -47, 29, -20, 16, 11,
   25, -25, -46, 44, 8, -34, -87, -30,
   -14, 62, 34, 1, -30, 5, -28, 1,
   86, 19, 17, 16, 8, 5, -16, -20,
   -18, 7, -52, 37, -47, -18, 32, -27,
   27, 22, 46, -4, -29, -6, 25, -14,
   -29, -28, -10, 30, 8, 2, 3, 7,
   55, -1, 7, 2, 15, -12, -12, -15,
   -51, 5, -23, -20, 40, -24, -20, 37,
   -105, -36, -5, 126, -109, -64, 35, -8,
   90, -10, 1, 21, 37, -60, -121, 4,
   -44, -29, 99, 36, -6, 6, 58, 43,
   110, 16, -23, 35, 32, 38, -5, -48,
   -27, -49, 57, -13, 21, -15, -20, 5,
   60, -24, -98, -36, -82, -20, -42, 12,
   78, 72, 3, -22, -20, 48, 38, 82,
   74, 84, -38, 10, 23, -3, -13, 3,
   -29, -18, 6, -23, -10, 4, 61, 38,
   113, 15, 102, 63, 35, 7, 28, -1,
   19, -1, 55, -46, 38, 10, -37, 53,
   -19, 90, -5, 36, 92, 3, -24, -28,
   58, 20, 16, 15, 10, 73, -47, 29,
   -18, 24, -15, -14, -32, -19, 4, 39,
   17, -29, -18, 51, 9, 46, 26, -28,
   18, 17, -6, 6, 57, -19, 9, 11,
   26, 39, -4, -5, 4, -31, 26, 27,
   -18, -32, -11, 18, 35, 39, 0, 45,
   -44, 21, -31, -21, -2, 23, -2, -2,
   11, -8, -4, 82, -63, 2, 55, -57,
   -37, -31, 6, -73, -32, -10, 72, -58,
   -34, -18, 84, 5, -13, -30, 21, 6,
   18, -32, -33, -31, -86, -50, -57, -52,
   -24, -51, 31, 112, 13, 115, -10, 10,
   3, 63, 16, -49, 17, -8, -7, 43,
   -11, -15, -1, 54, 10, 64, 66, -42,
   18, 23, -75, 25, -34, -34, 90, 51,
   29, 36, -16, 51, 8, -41, -33, -43,
   79, -25, -6, -20, -9, 12, 49, 57,
   -2, 20, -53, 9, 9, 20, 4, 25,
   5, -17, 51, 52, -37, -6, -16, 16,
   -61, -34, 2, 17, -43, 17, 25, -23,
   -49, 28, 21, 8, -1, -7, 27, 4,
   -40, -45, 33, 37, -10, 45, -39, -61,
   -10, -25, -14, 31, -6, 15, 18, 59,
   -19, -5, 24, 51, -36, -58, -29, 18,
   -46, 75, -43, -1, 127, -62, 29, 8,
   4, 4, 23, 10, -33, -24, 53, -70,
   -33, 26, 33, -63, 32, 23, -39, -34,
   44, 11, 2, 15, 42, 29, -32, 50,
   42, 13, -22, -18, -51, -21, 22, 13,
   29, -25, -36, -47, -8, 39, 32, 32,
   69, 4, 3, 3, 9, -26, 1, -20,
   -13, -109, -30, 29, 36, -15, 66, 13,
   24, -36, -19, 40, -23, 6, -13, 42,
   -7, -16, -10, -23, -57, 1, -14, 2,
   21, 12, 12, -34, 46, -26, -57, 40,
   -23, -27, -41, 53, 6, 41, -21, -8,
   4, -5, 6, 7, 21, -5, -5, -10,
   14, 24, 5, 59, 20, 13, 36, -36,
   -28, -13, 48, 20, -2, 16, -19, -61,
   -10, -46, 25, 22, 14, -67, -5, -38,
   -29, 14, 3, 61, 3, 7, 38, 56,
   6, 21, -7, 42, 1, 49, 29, 17,
   71, -34, 29, -40, -71, -69, -98, 111,
   -30, 18, 24, 17, 52, 18, 39, -19,
   -30, 33, -11, -22, -23, 55, -10, -31,
   61, 9, 37, 75, 75, 47, 63, 101,
   20, 73, 52, -32, -56, -13, 35, -48,
   25, 119, 53, -34, -8, 33, 127, -35,
   40, -9, 35, -2, 26, 10, -11, 42,
   61, 11, -6, 21, -23, -6, -63, -14,
   43, 36, 44, 4, 33, -22, -13, 20,
   -18, 8, -68, 21, -16, 39, -62, -47,
   27, -26, 8, -22, 45, 64, -76, 1,
   -125, -3, -36, 57, -39, 41, -107, -20,
   42, -18, -20, -1, -30, 4, 3, 2,
   23, 11, 38, 25, 0, -17, -18, -32,
   8, -26, 66, -15, 3, -13, -36, 15,
   -35, -4, -33, -10, 56, -31, -32, -12,
   -26, 11, 27, 15, 79, 12, 44, 22,
   -22, -11, 24, 8, 13, 19, 6, -11,
   13, -6, 4, -1, -4, -7, 8, 5,
   9, 11, 9, -2, -20, -6, 6, 0,
   -15, 6, 26, 13, -6, 13, -43, 28,
   19, 11, -16, 32, 14, -9, 5, -8,
   5, 5, 12, -14, -9, 8, 18, 10,
   1, -2, -4, -8, 11, -4, 16, -2,
   9, -19, -9, -21, 40, 16, 1, -7,
   16, -28, -6, 9, -21, 8, -26, 10,
   20, 24, 25, 21, -20, -7, -24, 17,
   -10, -10, 29, -40, 9, 23, -10, -27,
   16, 18, -3, -4, 16, -9, -5, -21,
   33, 24, 9, 32, -17, 7, -13, 11,
   13, 10, 1, 10, 8, -2, 9, -1,
   -18, -2, 22, 3, -23, 21, 4, -9,
   -3, -33, 23, -11, -29, -19, 20, -26,
   4, 30, -12, 10, 1, 5, 17, 14,
   4, -16, -1, -20, -34, -6, 11, 9,
   18, 20, 3, -2, 8, 10, -9, 10,
   14, -16, 3, -17, 27, 1, 21, -24,
   1, -3, 11, -13, -16, 5, -28, 2,
   -11, 14, -15, 33, -24, 8, 35, 6,
   2, -10, -18, 47, 25, -3, 27, 43,
   17, -34, 18, 8, -48, -24, 16, 9,
   -6, -3, -4, 23, -20, 23, 58, 13,
   18, -27, 46, 47, -21, -33, -18, -1,
   -12, 35, 24, -2, -38, 39, -6, 41,
   10, -36, 2, -25, 22, -30, -17, -30,
   13, -36, -26, -6, 21, 9, 11, 4,
   -11, -13, 9, 25, -2, -50, -30, -33,
   -30, -18, 4, -18, -7, -9, -15, -11,
   -38, -19, 30, -4, -25, -22, 21, 6,
   0, 27, -20, 36, -7, 33, 25, -28,
   26, -7, -50, 34, 34, 1, 3, 13,
   35, 12, -10, 31, -49, 33, -14, -38,
   2, -3, 9, -44, -10, -13, 3, -3,
   -20, -8, 33, -23, -43, 37, -22, -21,
   29, 17, -3, -21, 13, 14, 17, 28,
   -9, -14, -29, -1, 12, 16, 42, -8,
   -8, 14, 26, 44, -29, -26, -40, -5,
   17, -29, 3, 33, 69, -2, 12, -23,
   -7, 0, 31, -11, 99, 14, 9, -7,
   -10, 28, 28, -15, 31, 89, -22, -50,
   47, 15, 6, 24, -26, -18, -20, -22,
   -12, -35, -22, 38, -16, -12, -44, -5,
   24, -6, 22, -15, 19, -40, -1, 39,
   -11, -1, 12, 8, -11, 24, 7, 35,
   -17, 36, 11, 13, -7, 27, 6, -37,
   40, -43, 43, 1, -12, 11, -47, 10,
   0, 4, -23, -6, -23, -6, -20, -34,
   -32, -8, 26, 49, 0, 22, -18, -45,
   -1, 28, 16, 13, 21, 52, 28, -12,
   5, -21, 9, -8, -12, 3, 0, 44,
   4, -46, -16, 10, 2, -14, -28, 34,
   6, -38, 9, -30, 16, 80, -52, -2,
   -7, 23, -8, 9, 17, -4, 9, -6,
   11, -17, -12, -26, 28, -29, 39, 23,
   -10, -30, 27, 11, 15, -31, -13, -7,
   -10, -18, -37, 12, -8, -2, 6, -13,
   13, -23, 35, 19, -56, -8, 6, -10,
   22, 12, 4, -12, -8, 57, 41, -45,
   27, 2, -30, 9, 35, 28, -23, -13,
   -12, -2, -22, 32, 37, -70, -28, 44,
   -6, 12, 22, 16, -23, 68, -13, -4,
   -16, -3, -15, -4, -19, 10, -32, -28,
   -13, -47, 31, 18, -84, -2, 44, -44,
   -25, 16, 74, 2, -29, -24, -17, -14,
   -36, -12, -42, -2, -35, -2, -12, 17,
   12, 42, -4, 23, 44, -19, 26, -46,
   -4, 35, 13, -15, -30, 41, -26, -11,
   -12, 11, -27, -27, 4, 22, 19, -34,
   -45, 43, -46, 27, -7, -29, -40, 35,
   10, 0, 15, -43, 38, 6, 12, -20,
   5, 52, 6, -4, -36, 6, -26, -4,
   4, -26, -10, -47, 39, -47, -8, 1,
   -31, -1, -14, -14, 24, 11, -28, -16,
   4, 6, 10, -53, -8, 36, -8, -26,
   0, -6, -13, 19, -52, 12, 4, 2,
   -10, 18, -26, -39, 0, -66, -3, -2,
   -1, 25, -24, 37, 5, 68, 20, -22,
   7, 2, 34, 26, 28, -33, 26, -32,
   -32, 20, -33, -12, 10, 95, 2, -85,
   -15, 28, 39, 15, -1, 54, -15, 32,
   -5, 15, 22, 5, 24, 15, -22, -24,
   10, -47, -7, -10, -19, -61, -37, -55,
   35, 40, 45, -4, 21, 2, -12, 21,
   -5, -3, -12, -2, 29, -13, 38, -6,
   -18, -17, 36, -8, -38, -6, 11, -45,
   18, 9, -9, -29, -15, -4, -46, 18,
   -64, -17, -40, -59, -4, -3, 41, -8,
   7, 23, -50, 25, 60, 26, -24, 41,
   -8, -6, -6, 22, -21, 20, 70, 53,
   -6, -58, 2, -1, 25, -24, -18, -26,
   -5, 19, 4, -27, -3, 6, -11, -30,
   -15, -17, -35, -26, 84, 9, -21, 64,
   9, 23, -47, 57, 1, 37, -45, 21,
   23, -32, 12, -91, 2, -59, -4, 27,
   -38, -21, -66, -10, 8, -21, 32, -45,
   -57, -8, 37, 41, 87, -74, -22, -16,
   -41, 23, 19, -2, 4, -2, 57, 110,
   41, -32, -15, -5, 20, 40, 31, -4,
   8, 24, 19, 36, -49, 99, -26, 41,
   35, 11, -47, -54, -41, -65, 86, 8,
   49, 14, 19, 34, 12, 11, 35, -4,
   7, 20, -27, -16, 24, -24, 18, 2,
   15, 26, -5, 9, -19, -9, -21, 17,
   10, -12, -18, 55, -16, -17, 22, 17,
   -45, 5, -25, -45, -10, 18, 58, -55,
   -18, -40, -35, 44, 10, -39, -3, 6,
   -51, 35, 33, 21, 40, 48, -66, -70,
   127, 39, -94, 127, 4, -51, -26, -72,
   -78, 56, -61, 1, -4, 31, -76, 33,
   -38, -38, 57, 6, 71, 11, -28, 101,
   -26, -51, -71, -24, -120, -71, -69, 11,
   -63, -15, 76, -127, 78, 62, 127, -90,
   -37, 126, -127, 13, -2, -10, 7, 46,
   41, -11, -14, -9, 12, -65, 19, -86,
   51, -113, -18, -43, 76, 127, 0, -109,
   65, -22, -4, 107, 42, -22, 29, -53,
   -75, -13, 51, -88, 74, -118, 11, -83,
   -33, -36, -30, 9, -127, -11, -127, 83,
   -110, 104, 3, 59, 13, 95, -47, -58,
   -48, -11, 90, 27, -10, -6, 2, -81,
   -75, -4, 52, 11, 18, 2, 12, -9,
   13, -61, 10, 20, -89, -79, -39, 81,
   13, 21, -83, 51, 47, -2, 12, -14,
   33, 26, -94, -56, -39, -106, 71, 7,
   62, -57, -27, -21, 48, 78, 29, 19,
   80, 50, -121, 127, 68, 18, -52, -18,
   -13, 65, 32, -3, 16, -28, 62, -6,
   -20, -11, 1, -37, 76, 63, 7, -127,
   -3, 92, -37, -40, 52, 42, -13, -127,
   5, 46, 2, 20, 99, 55, -62, -127,
   -11, 110, -84, 0, 23, 127, -28, -127,
   -1, -56, 23, -89, -73, 6, 61, -18,
   -53, 55, 80, 88, 51, 67, 30, 127,
   -42, -32, 127, 12, -57, 51, -79, 127,
   84, -14, 127, 99, 91, 66, -17, 42,
   50, -45, -28, -16, -29, 63, 110, -59,
   -64, 69, 91, -17, 55, 87, -1, 34,
   38, -49, 31, -42, -34, 51, 0, -30,
   -60, -15, -114, -127, 16, -84, 68, -16,
   34, -21, -19, 127, -2, -66, 10, -55,
   36, 30, -126, 29, -117, -13, -60, 54,
   -40, -76, -57, 26, 22, -127, 68, -26,
   -24, -61, -98, -50, 72, 15, -8, -23,
   127, 93, 102, 22, 48, 24, -98, 14,
   84, -46, 2, 53, -43, 48, 68, -109,
   15, -37, 48, -55, 60, -38, -36, 19,
   40, -108, -108, -12, -5, 36, 35, -18,
   -47, -33, 40, 6, -57, -127, 31, -25,
   -31, -21, -127, 127, -95, -39, -17, 46,
   64, 54, 100, -127, 127, -65, -30, -17,
   -19, -10, 54, 106, 58, 127, -23, -47,
   -16, -89, -39, -55, 26, -49, 127, -67,
   -9, 88, 104, 40, -35, -4, -59, 8,
   -15, 1, 7, 127, 49, 38, 112, 127,
   -127, 24, -17, 49, 44, 99, -63, 71,
   -56, 127, 42, -34, -1, 34, 80, -35,
   -51, 68, -25, -31, 89, -122, 38, -68,
   -1, -48, 82, 56, -72, 25, -10, -26,
   -6, 15, -54, -91, 9, 22, 89, 88,
   8, 31, 52, -37, -78, -127, 127, -59,
   -18, 60, -57, 127, -79, -72, -85, 127,
   55, 39, 47, 41, 127, 94, -50, 46,
   26, 126, 76, 17, -39, 8, -19, 58,
   7, -13, 14, -21, 90, 127, 91, -127,
   68, 37, -127, 97, 31, 91, -21, -76,
   -28, 26, 25, 61, 35, -20, -66, -15,
   -49, -15, -1, 12, -4, -89, -33, -39,
   5, -40, -73, -118, -9, 41, 45, -49,
   25, -21, -49, 37, 98, -54, -127, 92,
   1, 14, 75, 127, -46, -2, 17, -36,
   -94, -30, 4, -74, 127, 21, 42, 109,
   -127, -60, -72, 74, 90, -86, -59, 36,
   127, 73, -57, -46, 76, -7, 5, -42,
   -6, -127, -2, 22, 58, 16, -85, -27,
   11, 24, 20, -39, 17, 8, -3, 1,
   121, -6, 69, 42, 72, 34, -9, 53,
   -99, -41, -113, -49, -43, -10, 127, 91,
   -2, -16, 16, -16, 32, -34, -30, 17,
   -77, -127, -56, 37, -127, -16, 92, 41,
   56, -33, 29, -61, 30, -4, -19, -67,
   0, -14, 14, -127, 19, 92, -25, -62,
   -127, -21, -29, -99, 127, 19, -61, 89,
   -29, -43, 15, 28, -120, 34, 3, 31,
   20, 98, 15, 80, 19, 100, -9, -127,
   -21, -57, 127, 9, -40, -77, 39, -127,
   18, -72, -127, -66, -19, -33, -40, 52,
   -110, 2, -80, -68, 14, -127, 37, -58,
   -79, -91, -69, -31, 127, -13, -5, 127,
   46, 2, 16, 125, -62, 93, 48, 3,
   -71, 9, 98, -17, -81, -26, 106, -52,
   -25, 84, -62, 3, -44, 9, -14, 11,
   -58, 127, 58, -28, 42, -66, 81, 55,
   -73, 32, -9, -73, -36, -92, -21, -51,
   -2, -44, 33, -10, -24, 45, -39, -127,
   10, -38, -127, -80, -20, -81, -7, 67,
   -111, 53, 55, -17, -84, 127, 84, -113,
   -117, 127, -28, 36, -18, -16, -127, -49,
   -32, -119, 7, 54, -45, 73, -10, -127,
   98, -23, -72, 127, 29, -65, -8, 54,
   57, 103, -81, -93, -110, -27, 104, -78,
   -96, -20, -110, 67, -93, 107, 58, -20,
   -35, -75, -9, 72, -38, 118, -49, -35,
   -127, 7, 58, 24, -84, -12, -50, -56,
   -41, -46, 69, 112, 5, 31, -112, 117,
   -78, -53, -11, -24, 55, 1, 5, -35,
   31, 86, 30, 127, -90, 93, 54, -69,
   7, 119, -23, -20, 88, 81, 61, 23,
   -17, 11, 93, -71, 127, -74, -93, 127,
   -68, 84, -3, 64, 45, 49, -16, 72,
   -107, -74, 24, -6, -81, -34, -98, -14,
   66, 21, 64, -75, -13, 127, 71, 10,
   -3, 19, 42, 77, -4, 21, 31, 64,
   -16, 21, -34, -73, -32, 76, 11, 12,
   45, -78, 73, 75, 38, 127, -36, 63,
   48, 12, 60, 109, 89, 13, 82, 57,
   -59, 23, 22, -34, -80, 64, 29, 32,
   127, -8, 105, -4, -29, -127, 111, -64,
   71, 47, 80, 4, -59, 10, -5, 28,
   31, 0, -55, 68, 18, 17, 39, -65,
   56, 58, 45, 120, 38, 6, -127, 110,
   -6, 66, 80, 25, 0, 127, 74, -127,
   34, 98, -13, 118, 4, 97, 47, 83,
   127, 0, -77, 67, 91, -25, -64, 4,
   -41, -22, -38, -117, 104, -15, -49, 10,
   -97, -7, -44, 73, 77, -127, -94, -19,
   -113, 30, -21, 77, 7, -88, -1, 127,
   -25, 3, -27, -16, 75, 57, 16, 46,
   -40, -65, -33, 15, 40, 5, 91, 36,
   4, -96, -68, 3, 9, 127, -63, -70,
   127, 21, 50, 36, -17, -1, -17, -33,
   2, -68, -64, -40, -34, -58, 54, -8,
   -127, -29, 28, -37, -44, 127, 16, -51,
   -50, 127, 14, 124, -1, -101, -62, -9,
   27, -64, -35, 36, -127, -106, -63, 42,
   127, -17, -68, -82, 107, -12, -17, -48,
   39, 127, -40, -21, 22, -51, -52, -51,
   68, -73, 63, 50, -65, -127, -127, 106,
   35, 37, -43, -127, -59, -127, 59, -123,
   33, -46, 13, -9, 28, -3, 49, -127,
   -56, 43, 50, 127, -36, 29, -60, -1,
   -71, 21, -10, -14, -96, 50, -34, -15,
   -69, -6, 87, -10, 96, -78, 127, 36,
   17, 50, -24, -123, -61, 15, 39, 127,
   32, -11, 118, -55, -69, -127, -5, -127,
   -37, 97, 49, -108, 1, 68, -125, 23,
   -36, 127, 127, 59, -115, -32, -43, 60,
   -37, 51, 20, 99, -127, -1, 127, 27,
   -76, 75, -54, -87, 30, 20, 46, -8,
   12, 112, 127, 79, 65, 29, -11, 18,
   94, -38, 48, -5, -127, -50, 60, -4,
   14, -51, 20, 121, 19, 7, 74, -25,
   71, -93, -95, -119, -29, -52, -85, -47,
   97, -5, -21, 36, 61, 25, 85, 52,
   -123, -30, 27, 46, 63, 89, -21, -127,
   95, 127, -36, 101, 127, 79, 103, -24,
   50, 89, 8, -127, 95, -127, -27, -80,
   -88, -59, -17, 35, -23, -24, 10, -3,
   -29, 8, 36, 127, -12, -86, -19, -39,
   127, -55, -17, 29, 80, -127, -14, -42,
   -16, 89, 45, 13, 20, 19, -127, -6,
   -127, 1, -27, -25, -30, -12, 9, -69,
   45, -68, -117, -71, -64, -56, 11, -90,
   46, -95, 12, -24, 3, -51, 8, 38,
   -14, -125, -25, 18, -56, -65, -127, 41,
   43, 4, -63, -9, 13, -74, -30, -25,
   -92, 48, 20, 80, 5, -33, -85, 14,
   1, -19, 127, 94, -52, -109, 112, 69,
   -127, -116, -56, 127, -34, -32, -114, 95,
   -4, 8, -26, -56, -107, -122, 6, -35,
   74, -127, 15, 110, 127, 29, 25, 18,
   127, -20, -12, 103, -93, -29, -56, -1,
   -57, -4, 0, -95, 59, -18, -26, -31,
   71, 6, -47, 52, 60, 127, -70, 122,
   -123, -20, -71, -34, -127, 127, -19, 127,
   -78, -127, -127, -79, -22, -103, 36, 2,
   9, 12, 89, -43, 0, -27, -33, -84,
   -88, 42, 38, -54, 45, -94, 33, -95,
   32, -111, 47, -105, 31, -92, 127, -127,
   127, 113, -96, 3, -7, -28, 65, -8,
   127, 4, 127, 53, -64, 127, 123, 127,
   2, 58, -25, 24, -56, 83, -108, -125,
   36, 127, 44, -27, 69, -95, -2, -36,
   -52, -54, 9, -17, -45, 127, -5, -50,
   127, 21, -2, -116, -127, -48, 84, -32,
   127, 6, 22, -19, -21, 74, -127, 54,
   35, 61, 74, -116, -92, -127, 127, 39,
   -127, 8, -121, 6, 1, -64, 98, 21,
   80, 127, 37, 22, -100, -80, 113, -119,
   80, -50, 4, -32, -18, 103, 35, -45,
   -31, 60, -127, -36, 113, 21, 51, -56,
   97, 65, -99, 25, 27, 55, 40, -51,
   103, -111, 25, -127, 64, 127, 4, -127,
   -117, 18, -127, -23, -69, -76, -98, -10,
   33, -21, -3, -73, -106, 42, 53, -123,
   57, -44, -93, -127, 103, -121, 85, -17,
   56, 127, -56, 41, 44, -4, 44, 92,
   -72, 19, 40, 16, 88, -127, 48, -51,
   -10, 22, -45, 26, 4, 127, 5, -16,
   -41, -2, -53, 16, -20, -89, 7, -126,
   -112, -38, 28, -39, 10, -20, -17, 55,
   -24, 7, -95, -23, -38, -10, -127, 87,
   119, -36, -42, 127, 30, -85, 16, 109,
   44, 1, 127, 83, 48, -43, -17, 69,
   12, -82, -12, -83, -4, -127, -65, 127,
   -50, -59, 80, -38, -67, -63, 47, -28,
   -84, -46, -127, -42, -127, 1, 64, -64,
   -45, -93, -127, -28, 95, -50, -90, -21,
   6, -6, -12, 45, -73, -97, 24, 24,
   127, -26, -127, 33, 65, 24, 127, -31,
   -90, -49, -26, -127, 21, 127, 57, -127,
   9, -117, -127, -22, -32, -127, -49, -18,
   -68, -24, 96, -15, -84, -86, -29, -127,
   -94, -94, 22, -80, 29, -127, 18, -85,
   43, -5, -21, -42, 37, -39, -22, -123,
   6, 14, -33, 4, -75, -53, 124, -106,
   57, 26, 7, 11, -16, 98, 50, 13,
   23, -27, -28, 49, -22, -65, -48, -25,
   -4, 85, 15, -10, 6, -88, -75, 98,
   -53, 18, 64, -58, -53, 88, -6, -15,
   -53, -5, -20, -84, 24, -68, -81, -68,
   28, -48, 127, 46, -67, 5, -127, -44,
   -5, -5, -60, 3, 15, -127, -43, 127,
   -127, 3, -71, -45, 63, -20, 79, 91,
   127, -108, 24, -33, -127, 56, 29, 8,
   -78, -55, -114, 55, -33, -48, -60, -104,
   -67, 13, 22, 127, -8, 27, -60, 39,
   -21, 81, -127, -15, -118, 81, -127, 127,
   -25, -110, 14, -81, -33, 0, 36, -106,
   -68, -33, -127, -72, -30, -106, -6, 127,
   39, -22, -7, -81, 6, 68, -6, -127,
   53, -26, 82, 40, -8, -3, 108, 34,
   4, -121, 14, 17, 25, -25, 73, -70,
   127, 10, -127, 127, 7, -125, -6, 67,
   -16, 60, -100, -34, -117, 90, 42, -5,
   -51, -37, 80, -103, 5, 83, 43, 41,
   -110, 76, -66, -55, 104, 14, 6, -12,
   -82, 49, -23, 4, 24, -49, 32, -48,
   -50, -125, -10, -96, -49, -12, 86, 64,
   127, -29, 127, -115, -28, -127, -127, 68,
   -58, 32, 76, 24, -78, 48, 82, 123,
   14, -74, -99, 66, 16, 68, -32, 61,
   78, -127, 68, 47, -15, 57, 27, 127,
   -106, 1, -72, 2, 11, -77, 46, 48,
   33, -50, 71, -12, -1, 1, -75, -33,
   69, 4, -51, -14, 51, 127, 83, 127,
   29, -95, -33, -127, 16, -127, -127, -79,
   -82, 15, -72, -49, 39, 80, -75, 2,
   -77, -65, 50, -54, -5, 20, 14, -127,
   21, -40, 51, -50, 64, -127, 68, -4,
   -3, 16, 52, 43, -84, 32, 86, 21,
   6, -44, -92, 15, 94, 97, -16, -49,
   -43, 47, 51, 23, -41, 71, -35, -7,
   104, -6, 9, -127, 24, 40, -6, -95,
   -52, -72, -24, -5, 34, -77, -62, 70,
   -9, 80, 45, 32, 59, 55, 1, 13,
   -15, 12, 68, -59, -13, 29, -27, 29,
   -3, -45, 88, 101, 65, 46, 57, -21,
   -17, 67, 5, 70, 45, 85, -90, 108,
   -51, 58, 118, -24, -80, 12, 24, 101,
   -127, -127, 22, 80, 13, 43, 34, -94,
   -16, -48, 19, 52, -1, -18, -7, 127,
   -53, -127, -62, 19, 50, 4, -25, -15,
   -42, 2, -126, 127, -127, 49, 53, -56,
   -66, 3, 47, -127, 127, 102, -127, -52,
   85, 20, -127, -127, 14, -26, 55, -127,
   -3, 32, -91, 32, 41, -127, -62, -21,
   -85, -50, 24, 82, -86, -74, 16, 88,
   8, -120, 66, 33, 11, 4, -44, -127,
   -16, 65, -54, -24, 7, 72, -50, -85,
   11, 24, 61, -76, -40, -79, 40, 64,
   -54, -21, 53, -127, -127, 61, -74, -117,
   -86, 95, -109, 45, -9, -20, -17, -35,
   -38, 36, 74, 111, 28, -47, -97, -60,
   60, -23, -20, 59, -16, 19, -127, -48,
   -76, -59, 127, 23, -22, -76, -127, -60,
   1, 59, 100, -87, -14, 115, 35, 127,
   12, -127, 95, 22, 73, 90, 52, 43,
   -32, 127, -40, 4, 58, 69, 16, 3,
   32, 20, 50, 14, 15, 45, 50, 67,
   106, -38, 42, 69, 59, 127, -73, -30,
   24, -57, -36, -89, -67, -42, -127, -127,
   59, 46, 24, 36, -1, 127, 66, -9,
   7, 59, -19, 16, 32, 39, -66, -11,
   102, -39, 23, 45, 17, -112, -13, -102,
   17, -34, -74, -91, -6, -22, 43, 3,
   25, 49, 58, 105, -17, 60, -1, 26,
   40, 113, -50, 127, 24, -6, -83, -87,
   56, -40, 31, 9, 44, 18, -40, 38,
   32, 69, 44, -75, 60, -22, 53, 8,
   63, -114, -37, 29, -50, -9, -48, -24,
   34, 110, -14, 4, 33, 65, 41, -63,
   -27, 14, 55, -38, 56, 104, 127, 76,
   98, -6, 51, 121, 19, -19, -24, 94,
   -55, 29, 57, -3, 30, -69, -78, -49,
   -43, 15, 45, 58, -33, 18, 80, 51,
   -45, 9, 43, -51, -60, 15, -57, -17,
   -46, -1, 53, -10, -67, -74, -27, -43,
   -76, 73, 17, 39, 44, 2, -28, -67,
   32, -47, -35, -13, 16, -23, -13, -9,
   52, 15, 25, 19, -47, -24, -13, -24,
   62, -99, -26, -11, 58, 40, 15, 10,
   127, -55, 33, -45, -52, 5, -58, 24,
   -127, 102, 100, 85, -20, -62, 65, 122,
   22, -11, 33, -109, 22, 62, -39, -31,
   20, -14, 29, -52, -36, 47, -8, -1,
   54, 25, -18, 4, 14, 32, -37, -15,
   30, -31, 117, 72, -103, -127, -58, 25,
   4, 44, 20, -127, 37, -68, -105, 105,
   -95, -56, -29, 120, -28, 3, 50, -51,
   52, 46, 0, -10, 84, 12, -63, 16,
   33, -1, 76, -3, -31, 103, -60, 98,
   -18, -47, -47, 127, -20, 89, -46, 100,
   -29, 28, 67, 70, 18, 17, -19, -26,
   -59, -44, -66, 58, -54, 33, 42, -6,
   -21, -2, -110, -17, 47, -33, 47, 16,
   -17, 63, -41, 60, 42, -2, 11, 72,
   92, 20, -24, 6, -11, 19, 72, 24,
   -7, -79, 63, 5, 12, 29, -36, 50,
   6, 65, 26, 123, 113, -45, 42, -50,
   -65, 45, -13, -6, -29, -4, -25, -10,
   -127, -80, 22, -127, -17, -102, -6, -127,
   119, -127, -124, -81, 17, 16, -47, -55,
   101, -83, 98, 66, 17, 11, 4, -81,
   -90, 111, -37, -9, 71, 2, -127, -44,
   -66, -127, 13, 41, -127, -98, 67, 101,
   -31, 75, -38, 25, 37, -45, 65, 59,
   -127, -35, -28, 20, -70, 10, 9, 19,
   62, 49, -24, -47, 60, -16, -53, -46,
   -2, -52, 127, -71, 41, -4, -10, 2,
   33, -70, 115, 21, 80, 127, -49, -62,
   11, 32, -14, 77, 22, -9, -72, -15,
   8, -64, -6, 34, -20, 43, 51, -13,
   -83, -9, 74, -2, -8, -24, -71, -18,
   -32, 7, -9, -25, 105, -23, -18, -88,
   48, -82, -127, 3, 36, -87, -76, 55,
   93, -18, -25, 7, -54, 127, -59, -56,
   45, -16, -67, 0, -84, -114, -42, 3,
   70, 47, -75, 127, -66, 13, -20, 127,
   127, -22, 127, -127, 27, 32, -14, 127,
   27, -64, 72, -82, -9, 38, -31, 56,
   -92, 24, 127, -38, -104, 91, 8, 10,
   61, 53, -43, -40, 96, 7, -52, -18,
   56, 6, 19, -56, 73, 51, 96, -88,
   -50, -57, 40, 127, -16, 16, 98, -17,
   -127, -37, 21, -127, -7, 74, -19, 43,
   -71, 38, 79, -61, 84, -31, -15, 79,
   81, 11, 47, -7, -127, 2, -24, -48,
   -18, -32, 19, -76, -42, 125, -127, -94,
   59, -39, -117, 30, 83, 58, 5, 93,
   -21, -63, -36, -32, -27, -36, -35, 8,
   -10, -66, 24, 32, -107, -110, 115, -24,
   -127, 59, -90, 34, -17, -20, -14, 67,
   23, -54, 79, -34, 88, -64, -52, 66,
   -127, 56, 3, -18, 41, 127, 103, -74,
   29, -127, -127, 54, -58, 57, 126, -114,
   -23, -5, 3, 62, -15, -121, -29, 108,
   13, 97, -15, 127, 46, 127, 100, -3,
   -35, -119, -110, 50, -127, -2, -83, -88,
   53, -63, 127, 67, -1, -26, -53, -127,
   1, 38, 127, 27, -44, 127, -95, 127,
   -15, -126, 86, -17, -64, -32, -27, -112,
   9, 76, -50, -93, 32, 48, 98, 17,
   -6, 42, 58, -105, -10, 61, -104, -45,
   -11, 20, -81, -5, 13, -31, -20, -64,
   -2, -20, -66, 13, 24, -38, 11, -39,
   23, 41, 41, -37, -127, 15, 85, 108,
   127, 127, 34, -124, 34, 127, -35, -12,
   85, -3, 75, 21, -83, -63, 17, -36,
   81, -73, -61, -38, -42, -19, -42, -28,
   -127, 10, -3, 71, 38, -74, 1, -51,
   -7, -44, 10, 9, -78, -72, -79, 85,
   78, 9, -46, -113, 48, -127, -21, -24,
   -73, -102, -64, 127, 30, 127, -85, 32,
   44, -46, -6, -68, 127, 49, -44, 109,
   65, -23, 51, 74, 5, 127, -15, -19,
   35, 121, 24, 78, 69, 27, 66, -81,
   -127, 50, 127, -14, 127, 3, -44, -35,
   15, -11, 64, -57, -57, -53, -89, -44,
   7, 95, -49, 61, 30, 5, -43, 127,
   -41, -54, 3, 65, 14, 5, 66, 20,
   108, 1, 80, 76, -48, -76, 6, -24,
   13, 9, 38, 57, 64, 21, -76, 105,
   -70, 52, -109, -49, 4, 13, 10, -17,
   35, -64, -25, 89, -2, 19, -68, 51,
   -59, -23, 27, -121, -49, 56, 55, -94,
   69, -116, -6, -23, 85, 16, 126, 86,
   86, -34, 118, -12, -34, -10, 57, 126,
   43, 81, -11, 35, -127, 30, 14, 119,
   -1, 11, -15, 36, -7, 62, 35, 41,
   -80, -105, -13, -98, -72, -113, 78, 42,
   -92, 1, -127, -1, 31, 118, -42, -117,
   -19, 10, -5, 105, 81, -31, -127, 27,
   22, 42, 94, -9, -48, -28, -103, 116,
   29, -127, 68, -7, -28, 6, -43, -17,
   9, -58, 60, 68, -43, -4, 94, -64,
   127, -37, -48, -10, 34, -102, 127, 127,
   77, -25, -93, -9, 31, 53, 33, 122,
   79, -10, -46, 79, -22, -33, 23, 62,
   25, -38, 51, 34, -14, 9, -46, -4,
   76, 48, 12, 44, -78, -95, 66, -27,
   -74, 28, 0, 45, -127, 82, 0, 78,
   -46, -74, 6, 127, 108, 23, 12, 113,
   -47, -10, -9, -9, 23, 52, 6, 22,
   40, -25, 19, -52, -19, -54, 60, 39,
   -40, -1, 4, -32, -2, -5, -16, 27,
   113, 64, 78, -56, -42, -39, -4, -16,
   -73, -21, 3, -39, -30, -9, 39, 22,
   15, -67, -50, 44, 45, -11, 13, -12,
   -36, -5, -21, 75, 39, -18, 7, -8,
   95, 14, 7, -27, 36, 20, 10, -66,
   -1, 4, 48, 19, -71, -38, -30, 86,
   -30, -9, 89, -59, 5, 17, -27, -23,
   -27, 73, 42, -3, 22, 27, 4, 59,
   24, -28, 56, -45, 127, -25, 25, -15,
   -10, -110, 13, -46, 73, -67, -83, -115,
   37, 5, 4, -95, 23, 19, -88, -57,
   -100, -55, 28, 78, -40, -26, -14, -38,
   -48, 0, 95, -9, 26, -59, 1, 9,
   -31, -19, 28, 44, 24, 69, -55, 28,
   56, 22, -37, 91, -64, 73, -76, 81,
   8, -6, -7, 33, -15, -48, 68, 54,
   -81, 3, -105, 75, 27, -33, 13, 58,
   40, 59, 8, -32, -36, -27, -39, -5,
   -62, -17, 3, 3, 127, -52, -32, 117,
   9, 13, 42, -14, 48, 78, 95, 32,
   6, 79, 40, -23, 94, -10, -63, 8,
   -15, 71, 33, -4, 38, 7, 71, -53,
   -33, -29, -19, 4, 28, 90, -9, 74,
   -25, -30, -1, -60, 59, 1, -1, -127,
   -51, -84, -54, -92, 78, -92, -17, 44,
   127, -57, 85, -17, -46, 72, -46, -32,
   -62, 127, -13, -44, 30, 4, -44, -55,
   10, 0, -39, 14, -102, -47, -17, -12,
   -2, -4, -24, 2, 51, -19, -14, 8,
   -14, -13, 43, 8, -95, 56, 28, -11,
   71, -17, 3, 33, -12, 18, -18, -40,
   -48, 21, 71, -80, 69, -45, -61, 53,
   28, 16, 52, 51, -90, 87, 0, -41,
   -57, 75, 0, 127, 36, -76, 64, 5,
   26, 65, -41, 53, -23, 15, -2, 29,
   20, -12, -42, -33, 79, 62, -21, 28,
   -1, 12, 87, -29, -94, -58, 36, -1,
   8, -17, -4, 33, 61, -63, 60, 32,
   -26, -45, -1, -10, 13, 86, 18, -50,
   -109, -127, 1, -16, 59, -19, 52, -81,
   108, -19, 17, 39, -23, -127, -5, -75,
   127, 31, 11, -113, -103, -19, -102, -3,
   -44, -26, 72, -38, 106, 58, 113, 52,
   -127, 62, 127, -119, 6, -73, 79, 48,
   64, -118, 9, -9, -37, -61, -40, -127,
   -56, 54, -23, 59, 49, 33, -3, -19,
   -6, -10, 77, 127, 26, 0, 4, 56,
   -22, -42, -31, -48, -50, 80, 84, 19,
   -99, -13, -28, -46, -112, 23, -43, 33,
   55, -4, 33, -3, -122, 22, 10, 8,
   41, 2, 27, -18, -11, 44, -14, -114,
   -76, -35, -49, 20, -14, 32, 55, -65,
   -97, -78, -54, -98, 41, 36, -16, 58,
   -37, -51, -11, 44, -9, -11, -75, 77,
   32, -33, -71, 73, 39, 127, -19, 16,
   -1, -82, 72, -115, -21, 51, 11, 62,
   52, -50, -94, 21, -64, 84, -46, -50,
   127, 127, 1, -34, -91, 55, -5, 48,
   -99, -11, 67, 8, 86, 112, 35, 37,
   -108, 6, 49, 57, 43, 29, -41, -50,
   8, -92, -117, 22, -93, -112, -88, -26,
   127, -11, 127, 61, -34, -22, -127, -94,
   35, 45, 85, -127, 21, -8, 18, -11,
   59, -16, 46, -1, -23, -9, -5, 7,
   -30, 63, 0, 49, 1, 55, 14, 48,
   -99, 32, -16, -9, 35, 20, -8, -45,
   -62, -34, -21, 117, 60, 69, 101, -45,
   -23, 23, -46, -12, 12, -39, 5, -15,
   -8, -71, -36, -123, 114, 38, 56, 63,
   -63, 79, 38, 28, 45, 62, -96, 66,
   -67, -45, -119, 18, -127, -96, -39, -24,
   121, -78, -16, 27, -111, -50, -51, -46,
   -50, 46, 76, -116, -33, -54, -53, -5,
   18, 35, -15, 55, 11, -66, 4, 24,
   52, -6, 9, -39, 23, -81, -1, -29,
   28, 32, -127, -87, 109, 38, 46, 85,
   59, -7, -18, 54, -45, -27, -68, -37,
   -24, -20, 11, -5, 4, 23, -13, -46,
   47, -15, 114, -55, 87, 61, 28, 47,
   -127, -6, 122, -63, -127, -10, -84, -26,
   11, -113, -48, 6, -92, -21, -72, -38,
   -23, 1, 122, 14, 1, -5, -11, 44,
   -28, -22, -23, 2, 2, 41, 17, 19,
   32, -22, -9, -1, -36, -26, 26, 78,
   -17, 23, 63, 103, -98, 0, -19, 44,
   -26, -27, -71, -45, 4, -27, -70, 14,
   0, -7, 21, 79, -28, 7, -39, -67,
   -122, -38, 54, -36, 52, 45, 15, -101,
   -98, -51, -124, 120, -113, 11, 23, 37,
   -14, -16, -9, 15, -16, 70, -56, -29,
   85, 30, -46, 107, 127, -71, -63, 25,
   66, 4, -39, -94, -85, -19, -51, -23,
   23, -47, -74, -102, -13, -119, -90, 33,
   58, 83, 14, -30, 58, -36, -89, -38,
   -52, 2, 44, -16, -11, -100, 51, -8,
   -11, 13, 33, 57, -47, 81, -37, 127,
   1, -127, -57, -49, -28, -57, -42, 9,
   61, 45, 55, 108, 72, 58, -123, 50,
   3, 15, 51, 86, -90, 19, 28, -24,
   2, -50, -53, 55, -73, -8, 92, 52,
   1, -52, 16, 15, 4, -5, -20, 108,
   -42, -94, 45, -6, 16, -40, 30, -51,
   -33, -82, 8, 11, -67, -18, 37, -15,
   10, 3, -34, 36, -25, 20, 59, 36,
   16, 12, -8, -25, 72, 16, 35, 68,
   41, -10, -52, -127, -6, -61, -32, 89,
   -16, 15, -72, 87, 8, 49, 16, 22,
   93, 55, -7, 38, 3, 31, -52, 14,
   -3, -45, 23, -49, -52, -66, -25, 15,
   32, 48, -66, 15, 19, 13, -13, 5,
   -45, 2, 120, 26, -16, -40, 84, -17,
   1, -31, -6, 62, -35, -16, 0, 45,
   7, -76, 49, 43, 27, -21, -57, 15,
   14, 6, 51, 39, 64, 55, 75, 28,
   -52, -32, -45, 5, -67, 32, -8, 42,
   -28, 11, -32, 0, 7, 35, 41, 14,
   -78, -9, -85, -46, -42, -30, 27, 13,
   14, -88, -21, 127, 1, -8, -49, -75,
   -18, -23, 90, 49, 34, -13, -19, -45,
   -62, 44, -14, -52, 48, -24, -29, 32,
   -62, -94, -42, 12, -7, 24, -52, 17,
   -48, -23, 69, -1, -9, -9, 5, -44,
   32, -90, -40, -87, -7, -124, 42, 61,
   4, 1, -60, -127, 0, -33, -17, 71,
   36, -81, -27, 102, 60, 37, -27, -16,
   127, 62, -28, 3, -22, -23, 67, -22,
   -40, -1, -20, 3, -3, -74, -40, -66,
   41, 68, 0, 12, -25, 83, -82, 44,
   16, -3, 127, -25, 13, 9, 77, -52,
   0, -2, -88, 101, -34, 32, -5, 84,
   10, -13, 51, 79, 30, -43, -16, -13,
   42, -21, -1, 32, 39, -4, 127, 2,
   -32, -24, -50, -16, 23, 24, 75, -26,
   10, -13, -116, 36, 54, 13, -9, -42,
   -22, -49, -58, -65, -59, -42, 54, 49,
   -19, -22, 0, 120, 4, -32, -57, -19,
   -48, -64, 51, 63, -17, 18, 35, -8,
   -42, 28, -11, -31, 24, -12, 29, -2,
   -14, -49, 28, 17, -5, 46, 5, 23,
   -16, -19, 68, 16, 16, 26, 0, -15,
   -30, -56, -4, -8, 16, -113, 26, -21,
   -1, -38, -51, 127, -34, -6, -55, -81,
   57, -127, 72, 50, 52, -13, 92, 16,
   6, 48, 33, -19, 52, 3, 84, -28,
   127, 26, 24, 91, 40, -12, -28, 19,
   -36, 47, 44, -31, 26, 55, -96, 2,
   -114, 87, 100, -95, -56, 42, -8, -74,
   33, -51, -13, -55, 23, 23, 10, -35,
   -28, -2, -27, 45, 11, 22, -6, -13,
   50, 44, -60, -60, 40, -61, 17, 12,
   -23, -10, -52, -68, 42, 103, -61, 42,
   -49, -14, 65, 124, 95, -81, -53, -124,
   13, 4, -11, -18, -76, 62, 4, -8,
   0, -34, 10, -112, -15, -11, 61, 82,
   21, -38, -76, -9, 47, 57, 32, 10,
   -26, -58, 15, 73, -44, -74, 85, 20,
   91, 80, 47, 3, 42, 7, -18, 48,
   -13, 11, 73, -62, 7, -31, -60, -1,
   7, 71, 33, 127, 47, 9, -57, -7,
   24, -84, 14, 40, -57, -3, 30, 9,
   -119, 24, 1, -15, 17, 27, 127, 3,
   32, 68, -106, -63, 23, -17, -50, 50,
   -19, 0, 111, 127, -93, -24, -49, -6,
   -14, -48, 3, -64, -7, -32, 20, -93,
   52, 95, 21, 109, -82, 2, -110, 44,
   -15, -31, -2, -95, 34, -61, 9, -88,
   76, -59, -24, 82, -25, -24, 52, -100,
   3, 25, -18, 41, 63, 65, -10, 78,
   -20, 33, -28, -26, -26, 11, 2, 10,
   -127, 7, -84, 73, 41, -79, 52, 26,
   38, 4, 66, 26, 59, -18, 24, 52,
   1, -116, -75, -116, -6, -23, -33, 91,
   47, 17, 31, -34, 39, 2, 9, 43,
   17, -57, 127, 34, -37, 29, 47, -15,
   51, 91, -16, -54, -24, 44, -83, 6,
   45, 54, -127, 59, 2, 27, 16, 38,
   -38, 64, 43, 62, -10, 27, 4, -31,
   76, 58, 24, 23, -94, 23, 5, 90,
   -2, 35, -31, -99, 54, 34, -9, 91,
   68, 64, 18, -47, -28, -26, 0, -41,
   -40, -2, -51, 127, 31, -73, -21, 63,
   -25, 53, -10, -20, 12, -1, -14, 52,
   51, 43, -50, 91, 20, 17, 66, -50,
   -69, -17, -59, 8, 37, -67, -32, -15,
   11, -26, 22, 52, -24, -50, -12, -108,
   -43, -37, 30, 65, 6, 47, 78, 68,
   -48, 44, 5, 28, -13, -30, 83, -10,
   -114, 26, -127, -42, 41, 9, 46, 86,
   -58, -26, 0, -33, 63, -102, 4, 92,
   -13, -21, -19, -34, -20, -52, -31, -46,
   42, 54, 9, -31, -18, -13, -37, 7,
   34, -68, -40, 19, 24, -50, 32, 14,
   32, 42, -24, 23, -72, 17, 38, 28,
   91, -37, 18, 115, -22, -28, 74, 16,
   51, -29, -70, -35, 19, 8, -30, 50,
   -40, 38, -60, 45, -64, 84, 64, -1,
   -33, 54, -45, -36, 10, -20, -3, 71,
   -78, -37, 33, 6, 77, -60, -62, -52,
   45, 54, 28, -60, -73, 1, -45, 5,
   -38, 68, 83, 45, -43, -60, -32, 42,
   -115, 55, -105, -9, 72, 107, 22, 44,
   -28, 38, -116, -14, -16, -10, 26, -64,
   -4, -41, 9, 54, 21, 127, 21, -82,
   -35, -7, 37, -11, 22, 65, -10, -26,
   -21, 2, 49, 68, 28, -10, 29, -66,
   -68, 11, -127, -92, 86, -59, -107, 39,
   -39, -60, -14, -64, 17, 1, -24, 63,
   -100, -42, -40, -84, 33, 22, 9, -36,
   16, 39, 47, -38, 34, -52, -4, -35,
   -34, 17, -92, 28, 37, 44, 16, -14,
   25, -45, -5, 24, 32, 15, 31, -29,
   -103, -52, 1, 33, 61, 65, 32, -17,
   7, 27, 10, -20, -91, -18, -54, 41,
   31, 34, -15, 118, -29, 17, 20, -36,
   18, -19, -4, -10, 7, -84, 20, -53,
   2, 12, 34, 4, -18, 20, 8, 3,
   18, -15, -3, -8, -70, -1, 16, 1,
   -24, 13, 82, 20, -48, -25, 70, -8,
   19, 79, -7, -34, 53, 8, -55, 16,
   85, 10, 20, 13, 89, 26, 9, -59,
   15, 78, -10, 44, 16, 33, 58, 30,
   -22, -1, 19, 2, 104, 21, 52, 15,
   -10, 30, 6, -5, 35, 15, -32, -9,
   -5, 9, -103, -38, -27, 3, -54, 20,
   -66, -46, 55, -46, -21, -8, -51, 43,
   -58, 27, 19, -74, -12, 7, 42, 34,
   16, 13, -6, -4, 10, -23, -1, 43,
   36, -40, 18, 4, 7, -11, 3, -5,
   21, -1, -12, 1, 27, 22, -25, -8,
   -35, 5, -34, -63, 17, -6, -19, 6,
   -31, 30, 2, 10, -15, 3, -17, -1,
   -14, -9, 22, 3, -11, -98, -5, -18,
   -35, -9, -13, 17, 74, 7, 2, -7,
   -15, 4, 15, 27, 16, -17, -3, -1,
   -11, -76, -47, -32, -23, -4, -19, 36,
   -3, -33, -47, -9, 14, 44, 13, 21,
   -54, -40, -25, -11, 15, 3, 17, -45,
   -3, 13, -100, 74, -9, -70, -24, 60,
   -24, -7, 41, -78, -13, 68, -5, -16,
   -8, -26, 16, 96, 7, -35, 23, -10,
   34, 2, 30, -52, 7, -27, 7, 44,
   -20, -30, -6, 1, -9, 55, 20, -15,
   -19, -91, -1, 13, 77, 60, 8, -16,
   -39, -10, -28, 0, -39, 18, -58, -26,
   -17, 32, 10, -23, -27, -86, -75, -6,
   -21, 46, -37, -43, 2, -14, 15, 28,
   10, -46, -47, -20, -98, 5, 16, 31,
   -7, -15, -10, 12, -24, -8, -26, 34,
   2, 12, -2, 33, -11, -2, 7, 32
};

static const rnn_weight noise_gru_recurrent_weights[6912] = {
   -1, -29, -18, -11, -50, 43, -17, -16,
   65, 114, -41, 16, 81, -5, -11, -12,
   -63, 33, 22, -14, 16, 56, 18, 35,
   9, -50, -20, 17, 27, 78, -13, -21,
   -23, 36, 46, -13, 12, -33, -57, -56,
   34, -7, 44, -6, -66, -31, -92, 58,
   -43, 20, 82, -16, 60, -43, 53, 0,
   -49, 4, 9, -63, 11, 11, -8, -53,
   -7, -17, 0, 37, -55, 85, 3, 64,
   87, -63, -60, -34, -10, -72, 44, 19,
   -36, -84, 33, -3, -37, 6, 4, 32,
   -36, -1, -28, 85, -30, -39, 51, 28,
   17, -69, -32, 48, 21, 21, -17, -2,
   50, -28, 20, 70, 58, -53, 47, -64,
   61, 33, -70, 33, 57, 51, -17, 23,
   8, -68, -1, 10, -32, 33, -8, 25,
   -5, 36, 115, 80, 51, 79, -13, -9,
   -43, -35, 53, -33, -11, 52, -102, -13,
   -5, -39, -45, 14, 6, 14, 27, 85,
   -8, -7, -52, 15, 2, -23, -2, -26,
   -58, -35, 18, -26, 75, -2, -74, 13,
   1, -55, 13, -95, 59, 19, 16, -79,
   -14, 46, -68, 69, -38, -9, -101, 15,
   -58, 13, 10, -55, -37, -57, -10, -46,
   7, 35, -28, -27, -6, -25, -20, -25,
   50, -45, 62, -46, -65, -46, 11, -24,
   -59, 9, 39, 15, 63, 34, -87, 19,
   9, -25, 5, -16, -2, 101, -12, -16,
   54, -23, -5, 10, -85, -8, -7, -1,
   62, -68, 23, 0, 47, -18, -22, -38,
   -8, -17, 57, -21, 61, 48, -51, 53,
   53, -64, 70, 11, 42, -10, -32, -2,
   16, 17, 32, 10, 11, 20, 13, 22,
   -11, -18, -14, -54, 12, -49, 9, 66,
   -24, -10, -14, 48, -2, 10, 38, 5,
   12, -27, -81, -105, 90, -41, -9, -44,
   100, 31, -1, 3, -16, -38, 53, 3,
   19, -3, 5, 58, 23, 22, -16, 56,
   36, 21, 74, 1, 47, -35, 36, 2,
   27, 52, 36, 36, -27, 2, 68, -97,
   59, 62, -36, 1, 19, 18, 60, 34,
   65, 3, 122, -10, 69, 114, -83, -13,
   32, -89, -35, -17, -24, 38, 66, -100,
   -7, 7, -68, -15, 26, -5, 10, 7,
   -17, 7, -51, -8, 31, 45, -60, 36,
   -28, -20, 18, 2, -17, 44, -6, -34,
   25, 32, -36, 8, -55, -61, -35, 31,
   83, -22, 54, 13, -21, -127, -13, 15,
   33, -33, 1, 55, 1, 11, 14, -19,
   4, -5, 21, -38, 5, 2, -25, 4,
   -45, -16, 16, -35, -14, 36, -77, -4,
   -108, 4, 27, -40, 11, 8, -10, -28,
   -11, 10, 13, -7, -23, 20, -9, 13,
   76, 20, 41, -23, 28, -127, -9, 6,
   25, -31, 47, -9, -38, 54, -7, 57,
   -35, 8, -23, 40, 52, 60, -69, 26,
   45, 42, 2, 8, 20, 31, -8, 10,
   -14, 39, 31, -25, -70, -7, 0, -78,
   47, 48, -22, 45, 25, 13, 36, 20,
   45, 43, -47, 15, -38, -36, -50, -6,
   -37, -24, 27, 25, 2, 6, -34, -24,
   -14, 23, 18, -12, 32, -25, 7, -18,
   34, -24, 33, 17, -23, 31, 20, -27,
   9, -34, 7, -34, -99, 0, -2, 15,
   -20, -18, 43, 22, -53, 11, 48, -21,
   98, -1, -10, 28, -26, -98, -38, 10,
   68, 8, -12, 29, 16, -44, -9, 30,
   -15, -7, 74, -19, 19, 44, -4, -22,
   -12, -82, 33, -85, 42, -59, -22, 7,
   4, 12, 40, -35, -80, 16, 40, 57,
   39, 10, 47, 26, -1, 12, 98, -20,
   -47, -29, 42, 27, 20, 34, 20, 71,
   9, -5, 44, 4, -81, 39, 53, 20,
   49, 111, -7, -91, 42, 16, -31, -23,
   79, -61, -14, -59, 24, -32, 76, -44,
   -6, -18, -50, 11, -73, 109, -17, -23,
   0, 51, 84, -32, -4, -13, 59, -10,
   -105, 57, -6, -67, 92, -15, 13, -20,
   -57, 65, 19, 13, -37, -83, 65, -19,
   55, -20, -38, -30, -23, 37, 23, -60,
   -11, -4, 7, 51, 26, -1, -87, -1,
   9, 8, 27, 1, 39, -69, 11, -15,
   -22, -67, -16, -22, -40, 7, 16, 13,
   58, -48, -13, 5, -36, -14, 70, -72,
   43, 65, 38, -32, 23, -3, 7, -35,
   3, 18, -22, -17, 59, -30, 39, 18,
   13, 63, 2, 40, -26, 5, -16, -25,
   15, 17, 68, 17, 94, -65, -10, 11,
   -30, 38, 16, 11, 81, 3, -63, -36,
   19, -25, 5, -2, 3, -3, -8, -17,
   -11, 4, -38, 16, -34, -9, -6, 22,
   73, -45, -86, 30, 40, -3, -54, -85,
   -35, 26, -17, 11, 27, -36, -5, -29,
   -31, -3, 65, 38, 25, 51, -54, -5,
   -69, 3, -20, 45, -17, 29, 32, -54,
   41, 68, -60, 1, 75, -4, -50, -16,
   -18, 13, 35, 2, -17, -34, 2, 24,
   -40, -23, 4, 27, 20, -9, 42, -44,
   -4, 36, -9, 26, 27, -15, 62, -30,
   15, 36, -9, 31, 16, -32, -27, -53,
   -2, -39, 48, -68, -64, -27, 1, 0,
   -4, -25, -37, -4, -3, 2, 44, 14,
   -18, 15, -1, -83, 33, -36, -15, 20,
   47, -33, -6, -2, 18, -28, 17, 18,
   11, -4, 14, -1, 23, -34, -44, -27,
   -90, -2, 2, 12, -13, -44, -51, 28,
   21, -7, -9, 11, -56, 29, -35, -20,
   -2, -20, -61, -43, 24, -127, 3, -53,
   30, -32, 11, -22, -23, -47, 5, -1,
   -11, -88, 31, -25, 55, 60, 19, -29,
   0, -55, 42, 41, 28, 58, 85, 37,
   -127, -35, -11, 67, 102, 66, 10, -12,
   7, 45, -52, -33, 63, 15, -5, 71,
   38, -13, -32, -11, 47, -23, -5, -48,
   35, 11, 3, -47, 5, -16, 25, 60,
   14, 38, -36, 10, -21, -14, -17, -62,
   -5, 44, -9, 3, 13, -29, -10, 13,
   -44, 16, -11, 34, 6, 48, 36, -41,
   20, 2, 8, -37, -23, -31, -21, -6,
   83, 10, -9, 33, 12, 35, 48, 10,
   -7, 9, 7, -4, 21, 37, 8, -45,
   29, 44, -1, 36, 24, -28, -6, 30,
   -9, 27, 1, -35, -27, -85, 25, -39,
   0, -1, 55, -10, 41, -14, 10, 6,
   27, 13, 14, 43, 4, -19, -17, 7,
   -82, -20, 31, -25, -15, 73, 57, -15,
   32, -28, -8, -63, -17, -3, -21, -75,
   -30, 6, -4, 21, 74, 60, 51, -30,
   -25, 20, -19, 34, 46, 0, 89, -3,
   30, -10, -30, 30, -17, 20, 12, -36,
   -62, -18, -24, -30, 17, -56, 22, 1,
   18, -16, -29, -56, 63, -55, -4, 33,
   -46, 67, 66, 9, 48, 37, -24, -27,
   -8, -7, 20, -29, -18, -11, -8, -58,
   4, 14, 20, 34, 67, 13, -3, -26,
   -70, 11, -3, -20, 4, -4, -37, 42,
   35, -33, 6, -17, 54, 89, 47, 33,
   6, -16, 19, -12, 33, -68, 18, -19,
   14, 15, -16, 87, -32, 9, -13, -47,
   7, -98, 63, -62, 27, 1, 26, 22,
   -17, 16, -89, -6, -17, 28, 19, 121,
   -61, 41, 52, -17, 3, 46, 14, -15,
   62, 1, 37, -109, -12, -34, 81, 54,
   -56, -4, -4, 8, 65, -75, -26, -22,
   66, -53, -8, -53, -9, -29, -34, -29,
   -3, 20, 10, -50, 18, 110, -88, 24,
   -14, 77, 99, 19, 13, 3, -4, -5,
   84, 1, -5, 65, 10, 41, -16, -88,
   59, 45, -73, -22, 73, 53, 6, 90,
   29, -1, -2, -69, 72, -13, -71, -48,
   20, -20, -14, -18, -24, -5, 11, 5,
   24, 3, 8, 12, -23, 28, -31, 9,
   31, -1, 32, 35, 20, -30, 30, 26,
   71, -13, 13, 8, -36, -12, 6, -9,
   -4, 29, -43, -22, -6, -33, 22, -38,
   -12, -21, -16, -34, -41, -12, -14, 54,
   39, 48, -2, 50, 111, 3, 16, 10,
   -44, 2, -28, -8, -1, -18, -13, 76,
   9, 2, 22, -15, -27, -41, -11, 18,
   -25, 12, 67, 15, -24, -47, -23, 127,
   18, -13, -38, 3, -63, 38, -53, 40,
   7, 18, -9, 31, 38, 82, 0, 65,
   -4, 31, -9, -5, -63, -28, -26, 17,
   -19, -62, 18, -16, -5, 33, -95, -54,
   62, -73, -2, -34, 1, 8, -28, 6,
   -12, -67, 24, 13, 50, 2, 20, -63,
   4, 15, -20, 18, -32, 3, -23, -40,
   40, -17, 18, -29, -77, 40, -18, -50,
   -1, -29, -80, -11, -89, 17, -19, -13,
   -16, -32, -31, -22, 20, -38, -36, -27,
   12, 52, -47, -8, 2, -25, 28, -17,
   12, 14, -47, -59, -34, -6, 20, 67,
   4, 5, -59, -10, 18, -89, 40, -22,
   -27, 15, 7, 125, -49, 6, 32, 29,
   -15, -22, 15, -34, 42, 17, -11, -4,
   18, -24, 18, 11, -15, -8, -32, -36,
   19, 30, -57, -9, 59, 64, -50, -23,
   75, 42, 5, 26, -48, -5, 35, 42,
   13, 41, 10, -51, -4, 10, -51, -7,
   -111, -5, 4, -45, -8, 60, 23, 19,
   37, -12, 105, 0, -74, 88, -57, -21,
   -15, -16, -9, 46, 46, 74, -15, -24,
   -4, 127, 4, -69, -18, -34, -15, 12,
   5, 106, 83, 31, 34, 87, 83, -85,
   10, 14, -31, -13, 33, 2, 4, 64,
   57, 41, -23, -1, 32, 6, -45, 17,
   -16, 43, 30, 22, 12, 12, -18, -15,
   9, -13, 59, -8, 82, 10, -31, -21,
   -10, 66, 10, -71, 34, -11, 58, -12,
   -24, -35, 97, 2, -37, 64, 6, 2,
   -33, -16, 20, -3, -111, 31, 25, 9,
   29, 4, -40, -25, 12, -31, -39, -31,
   30, -67, 87, -8, -23, 0, -84, 20,
   0, -2, -1, -25, 44, 24, -52, 30,
   -17, 11, -17, -4, 61, 35, -11, 26,
   49, -15, 50, -54, -4, -16, 36, 5,
   40, 32, 32, -24, 59, -6, 34, -25,
   19, -7, -21, 28, 11, -7, -8, 29,
   -4, 36, -33, -59, 2, 2, -38, -32,
   111, -88, 18, 2, 127, 62, -120, 88,
   -4, -55, -15, -2, 28, 63, -71, -68,
   62, -18, 28, 3, 81, 46, -16, 39,
   6, 7, -34, 45, -112, 18, -2, 8,
   41, -60, 13, -35, 15, 3, 28, 29,
   45, -12, -14, -89, -69, -45, -42, -33,
   -34, -66, -41, 25, 5, -26, 0, 98,
   27, 58, 13, 20, 80, -16, 13, 31,
   13, -25, 25, -26, 46, -20, -22, 7,
   -9, -51, -8, -56, 68, 23, 12, 20,
   -14, 43, -44, 127, -77, 95, -4, -58,
   30, -7, 38, -71, 74, 57, -27, -16,
   1, 7, 39, 33, 2, -12, -14, -110,
   22, 5, -31, 9, 7, 68, 8, -80,
   -49, 49, 61, -48, 46, -31, -6, 21,
   -67, 22, -54, 33, -6, 9, 9, -11,
   11, -3, -23, -9, -24, -37, 23, 10,
   107, -23, 54, -17, 41, -41, 8, 16,
   29, -6, 19, -20, 16, 75, -3, -17,
   36, 127, 28, 23, 25, -12, -11, -16,
   35, 62, -24, 95, 89, 0, 109, -18,
   100, 56, 17, 58, -34, 23, 127, 10,
   82, 21, -55, -52, 48, 127, -37, -54,
   24, -35, -65, 35, -17, -29, 8, -11,
   6, -37, -38, 38, -8, 39, -5, 22,
   13, 7, 28, -11, 35, -52, -9, 4,
   7, 4, -16, -44, -10, -50, -22, -32,
   -31, -11, -3, 23, -34, -16, -45, -30,
   -28, -21, -26, 4, -14, -30, -58, 24,
   19, 4, 85, 24, -3, -23, -25, 13,
   8, 11, 40, 23, -1, 25, 35, -26,
   -6, -22, 12, 29, 6, -31, -24, -23,
   -5, 25, 15, -40, 3, 27, -5, -3,
   21, 38, 17, -50, -10, -27, 53, -3,
   22, -12, 63, 15, -51, 25, -8, 17,
   21, -61, -13, 25, -18, -34, -2, -14,
   56, -11, -10, -38, -67, -1, -45, 48,
   -5, -68, -30, -49, -6, 19, 53, -8,
   -54, -54, -49, -29, 0, -28, -68, 5,
   29, 25, -24, -42, 6, 11, -5, 28,
   -25, -29, 38, -65, -15, 117, -39, -12,
   36, 55, -21, -38, -23, 51, 1, 8,
   56, 51, -8, 12, 15, -35, 33, -26,
   49, 69, -5, -32, 16, 84, -7, -55,
   43, 60, 53, 31, 27, 24, -16, 35,
   -6, -37, 8, -14, 80, 7, 28, -15,
   66, -34, 39, 64, -55, 34, 25, 19,
   19, 33, -20, -39, 85, 41, 46, -34,
   7, 45, -37, -14, -5, -1, -46, -4,
   35, 59, -12, 40, 4, 41, 19, -67,
   -71, -16, 33, -35, 90, -6, -6, 38,
   -32, 19, 20, 13, -127, -5, -62, -5,
   -11, 29, 32, -13, -35, 19, 26, -15,
   -3, -67, -38, -67, -18, -53, 33, 74,
   31, 25, -29, -5, -6, 2, -43, 4,
   -29, -48, 19, 113, -49, -39, 38, 2,
   -19, 7, -57, 5, 54, 100, -10, 42,
   -48, -16, -13, -28, -32, -9, -16, 26,
   106, -10, 0, -69, -31, -15, -23, -28,
   67, -23, -44, -24, 45, -40, 33, 26,
   -6, -15, -43, -20, -27, -26, -3, 66,
   -35, -9, -4, 14, -46, -1, -28, -30,
   18, -25, -26, -31, -62, -37, -25, 39,
   -51, -34, 84, -61, -69, 18, -16, -9,
   -1, -5, -35, 14, 6, -20, 23, 3,
   1, 37, 8, 64, 33, -1, 12, -42,
   4, -48, 107, -33, 33, 23, -32, 23,
   -57, 62, -9, 18, -27, -55, -32, -23,
   13, 27, 23, -12, 15, -79, 21, -36,
   -4, 8, 20, 8, -18, -28, -32, -5,
   3, 6, 7, -30, 40, 47, -37, -69,
   -8, 38, -37, -19, 38, -44, -45, -7,
   -11, 40, 64, 127, -60, 0, 27, -58,
   -22, -29, 13, -60, -27, -49, -9, -45,
   -35, 22, 26, -15, -7, -46, 4, 59,
   127, -2, -10, 46, 76, 4, -23, 45,
   -34, 8, -11, -25, 33, -23, 23, -33,
   43, -13, 34, 33, 21, 32, 64, 85,
   -7, -48, -17, -106, 11, 44, -39, -54,
   -9, 24, 57, 17, 48, 8, 27, 16,
   22, -11, -29, 64, 37, 44, 46, 11,
   5, 47, -51, 1, -29, -27, 17, 81,
   39, -56, 11, -44, -15, 96, 21, 18,
   -9, 29, -67, -5, -50, -65, -43, 16,
   -44, 34, -13, -28, 3, -58, 12, 26,
   -66, 27, -6, 11, 18, 2, 45, -17,
   127, 49, 0, 70, 37, 92, -15, -4,
   58, -6, 3, 29, 20, 31, 34, 14,
   -9, -21, 2, -27, 21, 127, -22, 95,
   21, -49, -11, 23, 13, -10, 25, 13,
   92, -32, -10, -21, 72, -28, -10, 35,
   -3, 54, 31, -16, 114, 117, 12, 31,
   -13, 74, 15, -11, 6, 27, 36, -55,
   -25, 54, 2, 35, -16, -22, 56, -36,
   -21, 22, -39, 25, 8, 15, 28, 7,
   -46, 74, 21, -58, -4, 28, -26, -12,
   36, -8, -77, 3, 7, -9, -10, -27,
   -23, 19, 14, 3, 38, 44, -33, 8,
   -16, 27, 15, 28, 13, 34, 8, 62,
   0, 16, -64, -2, -39, -70, -11, 42,
   47, -18, 10, 17, -29, 17, 21, -34,
   -6, 0, -40, 16, 95, 68, 98, -11,
   48, -30, 1, -29, 9, 9, 32, -57,
   18, 22, 1, -19, 65, -10, -35, 25,
   -18, -5, 29, -28, 33, -30, 17, 27,
   13, 1, -45, -40, -61, -7, -39, -23,
   -10, -27, -53, 26, -2, -55, -29, -25,
   -31, 1, 50, -7, -19, 34, 14, 20,
   2, -42, -41, 10, -32, 1, 6, 25,
   -13, 33, 48, -24, 34, 61, -3, 70,
   43, 88, -29, 70, 44, -51, 11, 55,
   -11, 36, -29, -31, 13, -18, 34, 46,
   -16, -9, -64, 49, 36, -82, -31, 52,
   -15, 5, 127, 39, 24, 35, -57, -20,
   10, 10, -42, -17, 14, 81, -27, -10,
   -6, 66, -60, -14, 14, -18, -62, 3,
   38, 13, -23, 7, 21, -29, -26, -40,
   -39, 57, -18, 58, 10, -2, 1, -12,
   22, -22, -11, 27, -30, 0, -4, -26,
   -102, -25, 13, -3, -56, -60, -36, -43,
   -19, -87, 46, -61, -21, 24, -31, 77,
   -26, -14, 19, -48, -4, -59, -84, -17,
   15, 69, -42, 11, 12, -12, 27, 21,
   -18, -32, -11, -12, -62, 66, -29, 21,
   -22, 82, -42, 46, 4, 8, -40, -11,
   7, -21, -31, -8, 21, -37, -64, -31,
   14, -47, -25, 3, 50, 43, -11, 19,
   93, 52, 59, 36, 95, -17, 14, 61,
   -28, 22, 52, 7, 11, 47, 49, 41,
   71, 33, -19, 40, 17, -27, 84, -37,
   70, 15, -43, 19, 77, 62, -94, 3,
   0, -3, -15, -29, 14, -3, -26, -69,
   -65, -18, 27, 35, 53, -39, 53, -62,
   -32, -30, -17, -79, 35, 41, -29, -28,
   3, -23, 116, 4, -14, -111, -27, 40,
   -55, 34, 5, -27, 40, 9, -22, -1,
   -32, 11, -17, 40, 7, -75, -12, -48,
   8, -62, 6, -6, -33, -31, -5, 10,
   55, 21, -21, 14, 63, -16, -13, -12,
   30, 22, -64, 71, 62, 46, 3, -87,
   -23, -29, 21, -47, 0, 0, -71, -104,
   -12, -17, 14, 33, 55, -11, 31, -12,
   -13, -49, 34, -36, 9, -59, 23, -36,
   2, -30, -43, 9, 15, -52, 22, 26,
   -27, 21, 3, -94, -13, 45, -15, 6,
   -1, 20, 68, -64, 8, 24, 15, -10,
   -106, -11, -11, -45, -24, 26, -13, 41,
   52, -33, 4, 13, -69, -22, 31, 2,
   -16, 127, 19, -14, -13, -48, 22, -36,
   54, 2, 31, -25, 22, 9, 0, -30,
   10, 0, 31, 22, -12, -16, 49, 12,
   18, 18, -23, 36, 2, -24, 29, -54,
   -7, 0, 1, 14, -5, -12, 29, 54,
   50, -9, 1, -19, -40, -50, 10, 56,
   -13, 41, 13, 24, 65, 26, 14, 31,
   51, 45, 26, 111, 6, -52, -54, 71,
   -47, -24, 61, -86, -40, -7, -103, -20,
   12, 64, 35, -48, 67, -52, -37, -3,
   20, 72, 18, -4, -80, -10, -51, -37,
   14, -28, -29, 60, -16, 27, -3, 15,
   -33, -38, -76, 97, 0, 35, -32, 58,
   -9, -9, 75, 26, 15, -32, 11, 39,
   92, 17, -10, 54, 38, 27, 28, 31,
   7, 75, 127, 21, 46, -22, 44, 78,
   119, 74, -71, -35, 47, -15, 24, -27,
   -43, 127, -20, 106, -16, 25, 60, 58,
   127, 36, -20, -55, 127, -21, 56, -30,
   12, 25, -68, 81, -32, 62, 9, 12,
   -18, 46, -4, 49, 45, 21, -73, 9,
   26, 52, -34, -6, -51, -21, -23, -45,
   -41, 42, 25, 52, -96, 70, 22, -95,
   -127, 46, -47, 14, -10, -19, 33, -6,
   63, -47, 30, 0, 72, 84, 8, 65,
   -29, 20, -27, 36, 21, 30, -1, -35,
   8, -21, 77, -12, 1, -28, -33, -15,
   39, -12, -27, -44, 19, -37, -4, -10,
   3, 69, -73, 6, 23, 14, -37, 9,
   22, -5, -47, 4, -27, -15, -24, 33,
   22, -58, -11, -14, 34, -29, 18, 20,
   20, -37, -29, 78, -28, -67, 80, 17,
   -26, 127, -33, -56, -33, -78, -32, -22,
   -42, -17, 15, 22, 24, -7, -70, 11,
   25, -25, 4, -12, 7, -14, 32, -34,
   -25, 4, 81, -22, 34, -12, 64, 5,
   31, 56, 25, 26, -74, 49, 16, 10,
   -18, 13, 14, -14, 61, 26, 105, -18,
   -22, 36, -111, 57, 24, 5, 25, -18,
   -30, 0, 3, 40, 61, -15, -23, -7,
   5, -1, 33, 6, -48, 13, -11, -32,
   14, -11, -103, 16, -15, 33, -45, 61,
   41, 93, 0, 0, 6, -25, -5, -68,
   -8, -30, 11, 93, 19, -2, 38, -14,
   31, -11, -2, -8, 51, -11, 50, -56,
   -14, 25, 31, 10, 10, -52, 9, -34,
   -86, 2, -83, -62, 19, -10, -26, -59,
   72, -12, -41, 4, -18, 21, 30, -21,
   20, -9, -9, -25, 21, -127, 22, -30,
   72, -9, -50, 1, -100, 22, -61, -35,
   -21, 19, -8, -2, -8, -31, -22, -8,
   67, 18, 42, -72, 48, -53, -47, -50,
   -30, 0, 21, -30, -30, 24, 44, -6,
   -19, -19, 7, -6, 75, -24, -18, -28,
   -62, -104, -14, -31, -62, -37, -24, 17,
   -84, -22, 46, 45, -19, 39, 0, -16,
   37, -71, 79, -46, 68, 17, 18, -62,
   -16, 0, 0, -16, -23, 24, -94, -69,
   84, 27, -21, -63, -15, -9, -55, 17,
   -40, -97, -6, 12, 39, -10, 89, -22,
   -25, -21, 6, 13, 10, 12, 12, 12,
   37, -21, 127, 110, -18, 69, -24, -46,
   -66, -7, 30, 46, 30, 17, -21, 24,
